net
{
    node_size = (100 40);
    HR_Desc = "";
    HR_OOBN_FitExpand = "1";
    HR_Zoom_ZoomFactor = "100";
    HR_Groups_GroupColors = "";
    HR_Groups_GroupNames = "";
    HR_Groups_UserGroupsNo = "0";
    HR_Color_Interface = "-1";
    HR_Color_Instance = "-1";
    HR_Color_Utility = "56";
    HR_Color_Decision = "51";
    HR_Color_ContinuousChance = "-1";
    HR_Color_DiscreteChance = "32";
    HR_Monitor_InitSD = "2";
    HR_Monitor_InitStates = "5";
    HR_Monitor_OpenGraph = "0";
    HR_Monitor_GraphPrecision = "100";
    HR_Monitor_AutoUpdGraph = "0";
    HR_Compile_MaxMinimalSeparators = "100000";
    HR_Compile_ApproxEpsilon = "1.0E-5";
    HR_Compile_Approximate = "0";
    HR_Compile_Compress = "0";
    HR_Compile_TriangMethod = "0";
    HR_Propagate_AutoNormal = "1";
    HR_Propagate_AutoSum = "1";
    HR_Propagate_Auto = "1";
    HR_Font_Italic = "0";
    HR_Font_Weight = "400";
    HR_Font_Size = "-12";
    HR_Font_Name = "Arial";
    HR_Grid_GridShow = "0";
    HR_Grid_GridSnap = "0";
    HR_Grid_Y = "40";
    HR_Grid_X = "40";
    HRUNTIME_Grid_X = "10";
    HRUNTIME_Grid_Y = "10";
    HRUNTIME_Grid_GridSnap = "1";
    HRUNTIME_Grid_GridShow = "0";
    HRUNTIME_Font_Name = "Arial";
    HRUNTIME_Font_Size = "-12";
    HRUNTIME_Font_Weight = "400";
    HRUNTIME_Font_Italic = "0";
    HRUNTIME_Propagate_Auto = "0";
    HRUNTIME_Propagate_AutoSum = "1";
    HRUNTIME_Propagate_AutoNormal = "1";
    HRUNTIME_Compile_TriangMethod = "0";
    HRUNTIME_Compile_Compress = "0";
    HRUNTIME_Compile_Approximate = "0";
    HRUNTIME_Compile_ApproxEpsilon = "0.00001";
    HRUNTIME_Monitor_AutoUpdGraph = "0";
    HRUNTIME_Monitor_GraphPrecision = "100";
    HRUNTIME_Monitor_OpenGraph = "0";
    HRUNTIME_Monitor_InitStates = "5";
}

node FC
{
    label = "";
    position = (165 40);
    states = ("o changed" "1 changed" "2 changed" "3 changed");
    HR_Group = "0";
    HR_Desc = "";
    HR_State_3 = "";
    HR_State_2 = "";
    HR_State_1 = "";
    HR_State_0 = "";
}

node SC
{
    label = "";
    position = (445 31);
    states = ("0 Changed" "1 Changed" "2 Changed");
}

node OH2
{
    label = "";
    position = (291 169);
    states = ("no" "1 a" "2 v" "2 a" "fl" "st" "3 v" "stfl");
    HR_Group = "0";
    HR_Desc = "";
    HR_State_7 = "";
    HR_State_6 = "";
    HR_State_5 = "";
    HR_State_4 = "";
    HR_State_3 = "";
    HR_State_2 = "";
    HR_State_1 = "";
    HR_State_0 = "";
    HR_LinkMode_SC = "0";
    HR_LinkMode_OH1 = "0";
    HR_LinkMode_FC = "0";
    HR_LinkMode_OH0 = "0";
}

potential (FC | OH2)
{
    data
     = (( 0 0.7017 0.0515 0.2468 )	%  OH2=no
	( 0 0.5521 0.1328 0.3151 )	%  OH2=1 a
	( 0 0.8254 0.0351 0.1395 )	%  OH2=2 v
	( 0 0.773877 0.0670067 0.159116 )	%  OH2=2 a
	( 0.1956 0.6667 0.0297 0.108 )	%  OH2=fl
	( 0.40054 0.432843 0.0362036 0.130413 )	%  OH2=st
	( 0.113389 0.784022 0.0220978 0.080492 )	%  OH2=3 v
	( 0.1987 0.6633 0.0298 0.1082 ));	%  OH2=stfl
}

potential (SC | OH2)
{
    data
     = (( 0 0.9399 0.0601 )	%  OH2=no
	( 0 0.7395 0.2605 )	%  OH2=1 a
	( 0 0.9801 0.0199 )	%  OH2=2 v
	( 0 0.9188 0.0812 )	%  OH2=2 a
	( 0.633 0.3574 0.0096 )	%  OH2=fl
	( 0.7667 0.214 0.0193 )	%  OH2=st
	( 0.4644 0.5301 0.0055 )	%  OH2=3 v
	( 0.635 0.3553 0.0097 ));	%  OH2=stfl
}

potential (OH2)
{
    data = ( 0.247175 0.0627937 0.290271 0.0257974 0.252575 0.0880912 0.0211979 0.0120988 );
}
