net
{
    node_size = (110 54);
    HR_Grid_X = "10";
    HR_Grid_Y = "10";
    HR_Grid_GridSnap = "1";
    HR_Grid_GridShow = "0";
    HR_Font_Name = "Arial";
    HR_Font_Size = "-12";
    HR_Font_Weight = "400";
    HR_Font_Italic = "0";
    HR_Propagate_Auto = "0";
    HR_Propagate_AutoSum = "1";
    HR_Propagate_AutoNormal = "1";
    HR_Compile_TriangMethod = "0";
    HR_Compile_Compress = "0";
    HR_Compile_Approximate = "0";
    HR_Compile_ApproxEpsilon = "0.00001";
    HR_Monitor_AutoUpdGraph = "0";
    HR_Monitor_GraphPrecision = "100";
    HR_Monitor_OpenGraph = "0";
    HR_Monitor_InitStates = "5";
    HR_Monitor_InitSD = "2";
    HR_Color_DiscreteChance = "16";
    HR_Color_ContinuosChance = "48";
    HR_Color_Utility = "36";
    HR_Color_Decision = "17";
    HR_Groups_UserGroupsNo = "0";
    HR_Groups_GroupNames = "";
    HR_Groups_GroupColors = "";
    HRUNTIME_Grid_X = "10";
    HRUNTIME_Grid_Y = "10";
    HRUNTIME_Grid_GridSnap = "1";
    HRUNTIME_Grid_GridShow = "0";
    HRUNTIME_Font_Name = "Arial";
    HRUNTIME_Font_Size = "-12";
    HRUNTIME_Font_Weight = "400";
    HRUNTIME_Font_Italic = "0";
    HRUNTIME_Propagate_Auto = "0";
    HRUNTIME_Propagate_AutoSum = "1";
    HRUNTIME_Propagate_AutoNormal = "1";
    HRUNTIME_Compile_TriangMethod = "0";
    HRUNTIME_Compile_Compress = "0";
    HRUNTIME_Compile_Approximate = "0";
    HRUNTIME_Compile_ApproxEpsilon = "0.00001";
    HRUNTIME_Monitor_AutoUpdGraph = "0";
    HRUNTIME_Monitor_GraphPrecision = "100";
    HRUNTIME_Monitor_OpenGraph = "0";
    HRUNTIME_Monitor_InitStates = "5";
}

node L
{
    label = "";
    position = (0 391);
    states = ("Carrier" "Pure");
}

node Cecily
{
    label = "";
    position = (392 391);
    states = ("Carrier" "Pure");
}

node Fred
{
    label = "";
    position = (65 262);
    states = ("Carrier" "Pure");
}

node Ann
{
    label = "";
    position = (130 391);
    states = ("Carrier" "Pure");
}

node Eric
{
    label = "";
    position = (327 262);
    states = ("Carrier" "Pure");
}

node Brian
{
    label = "";
    position = (260 391);
    states = ("Carrier" "Pure");
}

node Henry
{
    label = "";
    position = (130 131);
    states = ("Carrier" "Pure");
}

node Dorothy
{
    label = "";
    position = (195 262);
    states = ("Carrier" "Pure");
}

node Irene
{
    label = "";
    position = (392 131);
    states = ("Carrier" "Pure");
}

node Gwenn
{
    label = "";
    position = (457 262);
    states = ("Carrier" "Pure");
}

node John
{
    label = "John";
    position = (260 0);
    states = ("Sick" "Carrier" "Pure");
}

node K
{
    label = "";
    position = (522 391);
    states = ("Carrier" "Pure");
}

potential (L)
{
 data = ( 0.005 0.995 );
}

potential (Cecily)
{
 data = ( 0.005 0.995 );
}

potential (Fred | L Ann)
{
 data = ((( 0.666667 0.333333 )	%  Carrier  Carrier
	  ( 0.5 0.5 ))	%  Carrier  Pure
	 (( 0.5 0.5 )	%  Pure  Carrier
	  ( 0 1 )));	%  Pure  Pure
}

potential (Ann)
{
 data = ( 0.005 0.995 );
}

potential (Eric | Brian Cecily)
{
 data = ((( 0.666667 0.333333 )	%  Carrier  Carrier
	  ( 0.5 0.5 ))	%  Carrier  Pure
	 (( 0.5 0.5 )	%  Pure  Carrier
	  ( 0 1 )));	%  Pure  Pure
}

potential (Brian)
{
 data = ( 0.005 0.995 );
}

potential (Henry | Fred Dorothy)
{
 data = ((( 0.666667 0.333333 )	%  Carrier  Carrier
	  ( 0.5 0.5 ))	%  Carrier  Pure
	 (( 0.5 0.5 )	%  Pure  Carrier
	  ( 0 1 )));	%  Pure  Pure
}

potential (Dorothy | Ann Brian)
{
 data = ((( 0.666667 0.333333 )	%  Carrier  Carrier
	  ( 0.5 0.5 ))	%  Carrier  Pure
	 (( 0.5 0.5 )	%  Pure  Carrier
	  ( 0 1 )));	%  Pure  Pure
}

potential (Irene | Eric Gwenn)
{
 data = ((( 0.666667 0.333333 )	%  Carrier  Carrier
	  ( 0.5 0.5 ))	%  Carrier  Pure
	 (( 0.5 0.5 )	%  Pure  Carrier
	  ( 0 1 )));	%  Pure  Pure
}

potential (Gwenn | Ann K)
{
 data = ((( 0.666667 0.333333 )	%  Carrier  Carrier
	  ( 0.5 0.5 ))	%  Carrier  Pure
	 (( 0.5 0.5 )	%  Pure  Carrier
	  ( 0 1 )));	%  Pure  Pure
}

potential (John | Henry Irene)
{
 data = ((( 0.25 0.5 0.25 )	%  Carrier  Carrier
	  ( 0 0.5 0.5 ))	%  Carrier  Pure
	 (( 0 0.5 0.5 )	%  Pure  Carrier
	  ( 0 0 1 )));	%  Pure  Pure
}

potential (K)
{
 data = ( 0.005 0.995 );
}
