net
{
    node_size = (80 40);
    HR_Groups_GroupColors = "";
    HR_Groups_GroupNames = "";
    HR_Groups_UserGroupsNo = "0";
    HR_Color_Decision = "17";
    HR_Color_Utility = "36";
    HR_Color_ContinuosChance = "48";
    HR_Color_DiscreteChance = "16";
    HR_Monitor_InitSD = "2";
    HR_Monitor_InitStates = "5";
    HR_Monitor_OpenGraph = "0";
    HR_Monitor_GraphPrecision = "100";
    HR_Monitor_AutoUpdGraph = "0";
    HR_Compile_ApproxEpsilon = "0.00001";
    HR_Compile_Approximate = "0";
    HR_Compile_Compress = "0";
    HR_Compile_TriangMethod = "0";
    HR_Propagate_AutoNormal = "1";
    HR_Propagate_AutoSum = "1";
    HR_Propagate_Auto = "0";
    HR_Font_Italic = "0";
    HR_Font_Weight = "400";
    HR_Font_Size = "-12";
    HR_Font_Name = "Arial";
    HR_Grid_GridShow = "0";
    HR_Grid_GridSnap = "1";
    HR_Grid_Y = "10";
    HR_Grid_X = "10";
}

node Corct3
{
    position = (340 90);
    states = ("yes" "no");
}

node Test7
{
    position = (830 10);
    states = ("pos" "neg");
}

node Inf7
{
    position = (830 180);
    states = ("y" "n");
}

node Corct6
{
    position = (750 70);
    states = ("y" "n");
}

node Inf4
{
    position = (410 140);
    states = ("y" "n");
}

node Test4
{
    position = (410 0);
    states = ("pos" "neg");
}

node Test5
{
    position = (550 10);
    states = ("pos" "neg");
}

node Inf5
{
    position = (540 180);
    states = ("y" "n");
}

node Corct4
{
    position = (490 80);
    states = ("y" "n");
}

node Test6
{
    position = (670 -10);
    states = ("pos" "neg");
}

node Inf6
{
    position = (670 140);
    states = ("y" "n");
}

node Corct5
{
    position = (620 70);
    states = ("yes" "no");
}

node Corct2
{
    position = (190 90);
    states = ("yes" "no");
}

node Inf3
{
    position = (260 180);
    states = ("y" "n");
}

node Test3
{
    position = (260 30);
    states = ("pos" "neg");
}

node Corct1
{
    position = (60 100);
    states = ("y" "n");
}

node Inf2
{
    position = (120 140);
    states = ("y" "n");
}

node Test2
{
    position = (120 10);
    states = ("pos" "neg");
}

node Test1
{
    position = (0 30);
    states = ("pos" "neg");
}

node Inf1
{
    position = (0 180);
    states = ("y" "n");
}

potential (Corct3 | Test3 Inf3)
{
 data = ((( 1 0 )	%  pos  y
	  ( 0 1 ))	%  pos  n
	 (( 0 1 )	%  neg  y
	  ( 1 0 )));	%  neg  n
}

potential (Test7 | Corct6 Inf7)
{
 data = ((( 0.999 0.001 )	%  y  y
	  ( 0.001 0.999 ))	%  y  n
	 (( 0.7 0.3 )	%  n  y
	  ( 0.3 0.7 )));	%  n  n
}

potential (Inf7 | Inf5 Inf6)
{
 data = ((( 0.4 0.6 )	%  y  y
	  ( 0.0005 0.9995 ))	%  y  n
	 (( 1 0 )	%  n  y
	  ( 0.0005 0.9995 )));	%  n  n
}

potential (Corct6 | Test6 Inf6)
{
 data = ((( 1 0 )	%  pos  y
	  ( 0 1 ))	%  pos  n
	 (( 0 1 )	%  neg  y
	  ( 1 0 )));	%  neg  n
}

potential (Inf4 | Inf2 Inf3)
{
 data = ((( 0.4 0.6 )	%  y  y
	  ( 0.0005 0.9995 ))	%  y  n
	 (( 1 0 )	%  n  y
	  ( 0.0005 0.9995 )));	%  n  n
}

potential (Test4 | Corct3 Inf4)
{
 data = ((( 0.999 0.001 )	%  yes  y
	  ( 0.001 0.999 ))	%  yes  n
	 (( 0.7 0.3 )	%  no  y
	  ( 0.3 0.7 )));	%  no  n
}

potential (Test5 | Corct4 Inf5)
{
 data = ((( 0.999 0.001 )	%  y  y
	  ( 0.001 0.999 ))	%  y  n
	 (( 0.7 0.3 )	%  n  y
	  ( 0.3 0.7 )));	%  n  n
}

potential (Inf5 | Inf3 Inf4)
{
 data = ((( 0.4 0.6 )	%  y  y
	  ( 0.0005 0.9995 ))	%  y  n
	 (( 1 0 )	%  n  y
	  ( 0.0005 0.9995 )));	%  n  n
}

potential (Corct4 | Test4 Inf4)
{
 data = ((( 1 0 )	%  pos  y
	  ( 0 1 ))	%  pos  n
	 (( 0 1 )	%  neg  y
	  ( 1 0 )));	%  neg  n
}

potential (Test6 | Corct5 Inf6)
{
 data = ((( 0.999 0.001 )	%  yes  y
	  ( 0.001 0.999 ))	%  yes  n
	 (( 0.7 0.3 )	%  no  y
	  ( 0.3 0.7 )));	%  no  n
}

potential (Inf6 | Inf4 Inf5)
{
 data = ((( 0.4 0.6 )	%  y  y
	  ( 0.0005 0.9995 ))	%  y  n
	 (( 1 0 )	%  n  y
	  ( 0.0005 0.9995 )));	%  n  n
}

potential (Corct5 | Test5 Inf5)
{
 data = ((( 1 0 )	%  pos  y
	  ( 0 1 ))	%  pos  n
	 (( 0 1 )	%  neg  y
	  ( 1 0 )));	%  neg  n
}

potential (Corct2 | Test2 Inf2)
{
 data = ((( 1 0 )	%  pos  y
	  ( 0 1 ))	%  pos  n
	 (( 0 1 )	%  neg  y
	  ( 1 0 )));	%  neg  n
}

potential (Inf3 | Inf1 Inf2)
{
 data = ((( 0.4 0.6 )	%  y  y
	  ( 0.0005 0.9995 ))	%  y  n
	 (( 1 0 )	%  n  y
	  ( 0.0005 0.9995 )));	%  n  n
}

potential (Test3 | Corct2 Inf3)
{
 data = ((( 0.999 0.001 )	%  yes  y
	  ( 0.001 0.999 ))	%  yes  n
	 (( 0.7 0.3 )	%  no  y
	  ( 0.3 0.7 )));	%  no  n
}

potential (Corct1 | Test1 Inf1)
{
 data = ((( 1 0 )	%  pos  y
	  ( 0 1 ))	%  pos  n
	 (( 0 1 )	%  neg  y
	  ( 1 0 )));	%  neg  n
}

potential (Inf2 | Inf1)
{
 data = (( 0.4 0.6 )	%  y
	 ( 0.0005 0.9995 ));	%  n
}

potential (Test2 | Corct1 Inf2)
{
 data = ((( 0.999 0.001 )	%  y  y
	  ( 0.001 0.999 ))	%  y  n
	 (( 0.7 0.3 )	%  n  y
	  ( 0.3 0.7 )));	%  n  n
}

potential (Test1 | Inf1)
{
 data = (( 0.99 0.01 )	%  y
	 ( 0.01 0.99 ));	%  n
}

potential (Inf1)
{
 data = ( 0.0007 0.9993 );
}
