net
{
    node_size = (100 40);
    HR_Compile_SaveToMemory = "0";
    HR_Desc = "";
    HR_OOBN_CheckConsistency = "1";
    HR_OOBN_FitExpand = "1";
    HR_Zoom_ZoomFactor = "100";
    HR_Groups_GroupColors = "";
    HR_Groups_GroupNames = "";
    HR_Groups_UserGroupsNo = "0";
    HR_Color_Interface = "-1";
    HR_Color_Instance = "-1";
    HR_Color_Utility = "-1";
    HR_Color_Decision = "-1";
    HR_Color_ContinuousChance = "-1";
    HR_Color_DiscreteChance = "-1";
    HR_Monitor_InitSD = "2";
    HR_Monitor_InitStates = "5";
    HR_Monitor_OpenGraph = "0";
    HR_Monitor_GraphPrecision = "100";
    HR_Monitor_AutoUpdGraph = "0";
    HR_Compile_MaxMinimalSeparators = "100000";
    HR_Compile_ApproxEpsilon = "1.0E-5";
    HR_Compile_Approximate = "0";
    HR_Compile_Compress = "0";
    HR_Compile_TriangMethod = "0";
    HR_Propagate_AutoNormal = "1";
    HR_Propagate_AutoSum = "1";
    HR_Propagate_Auto = "1";
    HR_Font_Italic = "0";
    HR_Font_Weight = "400";
    HR_Font_Size = "-12";
    HR_Font_Name = "Arial";
    HR_Grid_GridShow = "0";
    HR_Grid_GridSnap = "0";
    HR_Grid_Y = "40";
    HR_Grid_X = "40";
    HRUNTIME_Monitor_InitStates = "5";
    HRUNTIME_Monitor_OpenGraph = "0";
    HRUNTIME_Monitor_GraphPrecision = "100";
    HRUNTIME_Monitor_AutoUpdGraph = "0";
    HRUNTIME_Compile_ApproxEpsilon = "0.00001";
    HRUNTIME_Compile_Approximate = "0";
    HRUNTIME_Compile_Compress = "0";
    HRUNTIME_Compile_TriangMethod = "0";
    HRUNTIME_Propagate_AutoNormal = "1";
    HRUNTIME_Propagate_AutoSum = "1";
    HRUNTIME_Propagate_Auto = "0";
    HRUNTIME_Font_Italic = "0";
    HRUNTIME_Font_Weight = "400";
    HRUNTIME_Font_Size = "-12";
    HRUNTIME_Font_Name = "Arial";
    HRUNTIME_Grid_GridShow = "0";
    HRUNTIME_Grid_GridSnap = "1";
    HRUNTIME_Grid_Y = "10";
    HRUNTIME_Grid_X = "10";
}

node MH1
{
    label = "";
    position = (413 406);
    states = ("no" "1a" "2 cons" "2 s" "2 v" "fl" "st" "3 v" "stfl");
    HR_LinkMode_MH2 = "0";
    HR_Desc = "";
    HR_State_8 = "";
    HR_State_7 = "";
    HR_State_6 = "";
    HR_State_5 = "";
    HR_State_4 = "";
    HR_State_3 = "";
    HR_State_2 = "";
    HR_State_1 = "";
    HR_State_0 = "";
    HR_LinkMode_MH = "0";
    HR_LinkMode_MSC = "0";
    HR_LinkMode_FC = "0";
    HR_LinkMode_OH1 = "0";
    HR_Group = "0";
}

node MH0
{
    label = "";
    position = (410 532);
    states = ("no" "1a" "2 cons" "2 s" "2 v" "fl" "st" "3 v" "stfl");
    HR_LinkMode_MH1 = "0";
    HR_Desc = "";
    HR_State_8 = "";
    HR_State_7 = "";
    HR_State_6 = "";
    HR_State_5 = "";
    HR_State_4 = "";
    HR_State_3 = "";
    HR_State_2 = "";
    HR_State_1 = "";
    HR_State_0 = "";
    HR_LinkMode_OH0_1_1 = "0";
    HR_LinkMode_MFC = "0";
    HR_LinkMode_OH1 = "0";
    HR_LinkMode_FC = "0";
    HR_Group = "0";
}

decision MSC
{
    label = "";
    position = (250 334);
    states = ("0 changed" "1 changed" "2 changed");
    HR_State_2 = "";
    HR_LinkMode_MH2 = "0";
    HR_Group = "0";
    HR_Desc = "";
    HR_State_1 = "";
    HR_State_0 = "";
    HR_LinkMode_MH = "0";
}

decision MFC
{
    label = "";
    position = (250 465);
    states = ("0 changed" "1 changed" "2 changed" "3 changed");
    HR_LinkMode_MH1 = "0";
    HR_LinkMode_OH0_1_1 = "0";
    HR_State_3 = "";
    HR_State_2 = "";
    HR_Group = "0";
    HR_Desc = "";
    HR_State_1 = "";
    HR_State_0 = "";
    HR_LinkMode_C2 = "0";
}

utility U
{
    position = (263 62);
}

decision D
{
    label = "";
    position = (263 181);
    states = ("call" "give up");
    HR_Group = "0";
    HR_Desc = "";
    HR_State_1 = "";
    HR_State_0 = "";
    HR_LinkMode_U = "0";
}

node OFC
{
    label = "";
    position = (665 349);
    states = ("o changed" "1 changed" "2 changed" "3 changed");
    HR_LinkMode_MSC = "0";
    HR_Group = "0";
    HR_Desc = "";
    HR_State_3 = "";
    HR_State_2 = "";
    HR_State_1 = "";
    HR_State_0 = "";
    HR_LinkMode_D2 = "0";
    HR_LinkMode_OH1 = "0";
}

node OH0
{
    label = "";
    position = (561 400);
    states = ("no" "1a" "2 cons" "2 s" "2 v" "fl" "st" "3 v" "stfl");
    HR_LinkMode_OFC = "0";
    HR_LinkMode_FC = "0";
    HR_LinkMode_OH1 = "0";
}

node OSC
{
    label = "";
    position = (670 185);
    states = ("0 Changed" "1 Changed" "2 Changed");
    HR_LinkMode_D = "0";
    HR_Group = "0";
    HR_Desc = "";
    HR_State_2 = "";
    HR_State_1 = "";
    HR_State_0 = "";
    HR_LinkMode_Action = "0";
    HR_LinkMode_OH2 = "0";
}

node OH1
{
    label = "";
    position = (562 257);
    states = ("no" "1 a" "2 cons" "2 s" "2 v" "fl" "st" "3 v" "stfl");
    HR_LinkMode_OSC = "0";
    HR_LinkMode_SC = "0";
    HR_LinkMode_OH2 = "0";
}

node MH2
{
    label = "";
    position = (414 256);
    states = ("no" "1 a" "2 v" "2 a" "fl" "st" "3 v" "stfl");
    HR_LinkMode_D = "0";
    HR_Group = "0";
    HR_Desc = "";
    HR_State_7 = "";
    HR_State_6 = "";
    HR_State_5 = "";
    HR_State_4 = "";
    HR_State_3 = "";
    HR_State_2 = "";
    HR_State_1 = "";
    HR_State_0 = "";
    HR_LinkMode_Action = "0";
    HR_LinkMode_Besthand = "0";
}

node OH2
{
    label = "";
    position = (561 115);
    states = ("no" "1 a" "2 v" "2 a" "fl" "st" "3 v" "stfl");
    HR_LinkMode_Besthand = "0";
}

node Besthand
{
    label = "";
    position = (416 109);
    states = ("myhand" "opponent" "draw");
    HR_Group = "0";
    HR_Desc = "";
    HR_State_2 = "";
    HR_State_1 = "";
    HR_State_0 = "";
    HR_LinkMode_U = "0";
}

potential (MH1 | MFC MH0)
{
    data
     = ((( 1 0 0 0 0 0 0 0 0 )	%  MFC=0 changed  MH0=no
	 ( 0 1 0 0 0 0 0 0 0 )	%  MFC=0 changed  MH0=1a
	 ( 0 0 1 0 0 0 0 0 0 )	%  MFC=0 changed  MH0=2 cons
	 ( 0 0 0 1 0 0 0 0 0 )	%  MFC=0 changed  MH0=2 s
	 ( 0 0 0 0 1 0 0 0 0 )	%  MFC=0 changed  MH0=2 v
	 ( 0 0 0 0 0 1 0 0 0 )	%  MFC=0 changed  MH0=fl
	 ( 0 0 0 0 0 0 1 0 0 )	%  MFC=0 changed  MH0=st
	 ( 0 0 0 0 0 0 0 1 0 )	%  MFC=0 changed  MH0=3 v
	 ( 0 0 0 0 0 0 0 0 1 ))	%  MFC=0 changed  MH0=stfl
	(( 1 0 0 0 0 0 0 0 0 )	%  MFC=1 changed  MH0=no
	 ( 0 1 0 0 0 0 0 0 0 )	%  MFC=1 changed  MH0=1a
	 ( 0 0 0.347 0.3674 0.1224 0 0.1632 0 0 )	%  MFC=1 changed  MH0=2 cons
	 ( 0 0 0 0.6224 0.1224 0.2143 0.0307 0 0.0102 )	%  MFC=1 changed  MH0=2 s
	 ( 0 0 0 0 0.9592 0 0 0.0408 0 )	%  MFC=1 changed  MH0=2 v
	 ( 0 0 1 0 0 0 0 0 0 )	%  MFC=1 changed  MH0=fl
	 ( 0 0 0 1 0 0 0 0 0 )	%  MFC=1 changed  MH0=st
	 ( 0 0 0 0 1 0 0 0 0 )	%  MFC=1 changed  MH0=3 v
	 ( 0 0 0 0 0 0.5 0.5 0 0 ))	%  MFC=1 changed  MH0=stfl
	(( 1 0 0 0 0 0 0 0 0 )	%  MFC=2 changed  MH0=no
	 ( 0 0.1814 0.0681 0.4796 0.1738 0.0536 0.0383 0.0026 0.0026 )	%  MFC=2 changed  MH0=1a
	 ( 1 0 0 0 0 0 0 0 0 )	%  MFC=2 changed  MH0=2 cons
	 ( 1 0 0 0 0 0 0 0 0 )	%  MFC=2 changed  MH0=2 s
	 ( 1 0 0 0 0 0 0 0 0 )	%  MFC=2 changed  MH0=2 v
	 ( 0.1672 0.0445 0.0635 0.4659 0.1694 0.0494 0.0353 0.0024 0.0024 )	%  MFC=2 changed  MH0=fl
	 ( 0.1672 0.0445 0.0635 0.4659 0.1694 0.0494 0.0353 0.0024 0.0024 )	%  MFC=2 changed  MH0=st
	 ( 0.1672 0.0445 0.0635 0.4659 0.1694 0.0494 0.0353 0.0024 0.0024 )	%  MFC=2 changed  MH0=3 v
	 ( 0.1672 0.0445 0.0635 0.4659 0.1694 0.0494 0.0353 0.0024 0.0024 ))	%  MFC=2 changed  MH0=stfl
	(( 0 0 0 1 0 0 0 0 0 )	%  MFC=3 changed  MH0=no
	 ( 0 0 0 0 0 0 0 1 0 )	%  MFC=3 changed  MH0=1a
	 ( 0 0 0.347 0.3674 0.1224 0 0.1632 0 0 )	%  MFC=3 changed  MH0=2 cons
	 ( 0 0 0 1 0 0 0 0 0 )	%  MFC=3 changed  MH0=2 s
	 ( 0 0.1814 0.0681 0.4796 0.1738 0.0536 0.0383 0.0026 0.0026 )	%  MFC=3 changed  MH0=2 v
	 ( 0.1672 0.0445 0.0635 0.4659 0.1694 0.0494 0.0353 0.0024 0.0024 )	%  MFC=3 changed  MH0=fl
	 ( 0.1672 0.0445 0.0635 0.4659 0.1694 0.0494 0.0353 0.0024 0.0024 )	%  MFC=3 changed  MH0=st
	 ( 0.1672 0.0445 0.0635 0.4659 0.1694 0.0494 0.0353 0.0024 0.0024 )	%  MFC=3 changed  MH0=3 v
	 ( 0.1672 0.0445 0.0635 0.4659 0.1694 0.0494 0.0353 0.0024 0.0024 )));	%  MFC=3 changed  MH0=stfl
}

potential (MH0)
{
    data = ( 0.1672 0.0445 0.0635 0.4659 0.1694 0.0494 0.0353 0.0024 0.0024 );
}

potential (MSC | MH1 OFC) {}

potential (MFC | MH0) {}

potential (U | D Besthand)
{
    data
     = (( 2	%  D=call  Besthand=myhand
	  -1	%  D=call  Besthand=opponent
	  0 )	%  D=call  Besthand=draw
	( -1	%  D=give up  Besthand=myhand
	  -1	%  D=give up  Besthand=opponent
	  -1 ));	%  D=give up  Besthand=draw
}

potential (D | OSC MH2) {}

potential (OFC | OH0)
{
    data
     = (( 0 0 0 1 )	%  OH0=no
	( 0 0 1 0 )	%  OH0=1a
	( 0 1 0 0 )	%  OH0=2 cons
	( 0 1 0 0 )	%  OH0=2 s
	( 0 1 0 0 )	%  OH0=2 v
	( 1 0 0 0 )	%  OH0=fl
	( 1 0 0 0 )	%  OH0=st
	( 1 0 0 0 )	%  OH0=3 v
	( 1 0 0 0 ));	%  OH0=stfl
}

potential (OH0)
{
    data = ( 0.1672 0.0445 0.0635 0.4659 0.1694 0.0494 0.0353 0.0024 0.0024 );
}

potential (OSC | OH1)
{
    data
     = (( 0 0 1 )	%  OH1=no
	( 0 0 1 )	%  OH1=1 a
	( 0 1 0 )	%  OH1=2 cons
	( 0 1 0 )	%  OH1=2 s
	( 0 1 0 )	%  OH1=2 v
	( 1 0 0 )	%  OH1=fl
	( 1 0 0 )	%  OH1=st
	( 1 0 0 )	%  OH1=3 v
	( 1 0 0 ));	%  OH1=stfl
}

potential (OH1 | OFC OH0)
{
    data
     = ((( 1 0 0 0 0 0 0 0 0 )	%  OFC=o changed  OH0=no
	 ( 0 1 0 0 0 0 0 0 0 )	%  OFC=o changed  OH0=1a
	 ( 0 0 1 0 0 0 0 0 0 )	%  OFC=o changed  OH0=2 cons
	 ( 0 0 0 1 0 0 0 0 0 )	%  OFC=o changed  OH0=2 s
	 ( 0 0 0 0 1 0 0 0 0 )	%  OFC=o changed  OH0=2 v
	 ( 0 0 0 0 0 1 0 0 0 )	%  OFC=o changed  OH0=fl
	 ( 0 0 0 0 0 0 1 0 0 )	%  OFC=o changed  OH0=st
	 ( 0 0 0 0 0 0 0 1 0 )	%  OFC=o changed  OH0=3 v
	 ( 0 0 0 0 0 0 0 0 1 ))	%  OFC=o changed  OH0=stfl
	(( 1 0 0 0 0 0 0 0 0 )	%  OFC=1 changed  OH0=no
	 ( 0 1 0 0 0 0 0 0 0 )	%  OFC=1 changed  OH0=1a
	 ( 0 0 0.347 0.3674 0.1224 0 0.1632 0 0 )	%  OFC=1 changed  OH0=2 cons
	 ( 0 0 0 0.6224 0.1224 0.2143 0.0307 0 0.0102 )	%  OFC=1 changed  OH0=2 s
	 ( 0 0 0 0 0.9592 0 0 0.0408 0 )	%  OFC=1 changed  OH0=2 v
	 ( 0 0 1 0 0 0 0 0 0 )	%  OFC=1 changed  OH0=fl
	 ( 0 0 0 1 0 0 0 0 0 )	%  OFC=1 changed  OH0=st
	 ( 0 0 0 0 1 0 0 0 0 )	%  OFC=1 changed  OH0=3 v
	 ( 0 0 0 0 0 0.5 0.5 0 0 ))	%  OFC=1 changed  OH0=stfl
	(( 1 0 0 0 0 0 0 0 0 )	%  OFC=2 changed  OH0=no
	 ( 0 0.1814 0.0681 0.4796 0.1738 0.0536 0.0383 0.0026 0.0026 )	%  OFC=2 changed  OH0=1a
	 ( 1 0 0 0 0 0 0 0 0 )	%  OFC=2 changed  OH0=2 cons
	 ( 1 0 0 0 0 0 0 0 0 )	%  OFC=2 changed  OH0=2 s
	 ( 1 0 0 0 0 0 0 0 0 )	%  OFC=2 changed  OH0=2 v
	 ( 1 0 0 0 0 0 0 0 0 )	%  OFC=2 changed  OH0=fl
	 ( 1 0 0 0 0 0 0 0 0 )	%  OFC=2 changed  OH0=st
	 ( 1 0 0 0 0 0 0 0 0 )	%  OFC=2 changed  OH0=3 v
	 ( 1 0 0 0 0 0 0 0 0 ))	%  OFC=2 changed  OH0=stfl
	(( 0.1583 0.0534 0.0635 0.4659 0.1694 0.0494 0.0353 0.0024 0.0024 )	%  OFC=3 changed  OH0=no
	 ( 0 1 0 0 0 0 0 0 0 )	%  OFC=3 changed  OH0=1a
	 ( 0 0 1 0 0 0 0 0 0 )	%  OFC=3 changed  OH0=2 cons
	 ( 0 0 0 1 0 0 0 0 0 )	%  OFC=3 changed  OH0=2 s
	 ( 0 0 0 0 1 0 0 0 0 )	%  OFC=3 changed  OH0=2 v
	 ( 0 0 0 0 0 1 0 0 0 )	%  OFC=3 changed  OH0=fl
	 ( 0 0 0 0 0 0 1 0 0 )	%  OFC=3 changed  OH0=st
	 ( 0 0 0 0 0 0 0 1 0 )	%  OFC=3 changed  OH0=3 v
	 ( 0 0 0 0 0 0 0 0 1 )));	%  OFC=3 changed  OH0=stfl
}

potential (MH2 | MSC MH1)
{
    data
     = ((( 1 0 0 0 0 0 0 0 )	%  MSC=0 changed  MH1=no
	 ( 0 1 0 0 0 0 0 0 )	%  MSC=0 changed  MH1=1a
	 ( 1 0 0 0 0 0 0 0 )	%  MSC=0 changed  MH1=2 cons
	 ( 1 0 0 0 0 0 0 0 )	%  MSC=0 changed  MH1=2 s
	 ( 0 0 0.9231 0.0769 0 0 0 0 )	%  MSC=0 changed  MH1=2 v
	 ( 0 0 0 0 1 0 0 0 )	%  MSC=0 changed  MH1=fl
	 ( 0 0 0 0 0 1 0 0 )	%  MSC=0 changed  MH1=st
	 ( 0 0 0 0 0 0 1 0 )	%  MSC=0 changed  MH1=3 v
	 ( 0 0 0 0 0 0 0 1 ))	%  MSC=0 changed  MH1=stfl
	(( 1 0 0 0 0 0 0 0 )	%  MSC=1 changed  MH1=no
	 ( 0 1 0 0 0 0 0 0 )	%  MSC=1 changed  MH1=1a
	 ( 0.5903 0.1181 0.1154 0.0096 0 0.1666 0 0 )	%  MSC=1 changed  MH1=2 cons
	 ( 0.5121 0.1024 0.1154 0.0096 0.2188 0.0313 0 0.0104 )	%  MSC=1 changed  MH1=2 s
	 ( 0 0 0.8838 0.0736 0 0 0.0426 0 )	%  MSC=1 changed  MH1=2 v
	 ( 0 0 0 0 1 0 0 0 )	%  MSC=1 changed  MH1=fl
	 ( 0 0 0 0 0 1 0 0 )	%  MSC=1 changed  MH1=st
	 ( 0 0 0 0 0 0 1 0 )	%  MSC=1 changed  MH1=3 v
	 ( 0 0 0 0 0 0 0 1 ))	%  MSC=1 changed  MH1=stfl
	(( 0.5613 0.157 0.1757 0.0055 0.0559 0.0392 0.0027 0.0027 )	%  MSC=2 changed  MH1=no
	 ( 0 0.7183 0.0667 0.1145 0.0559 0.0392 0.0027 0.0027 )	%  MSC=2 changed  MH1=1a
	 ( 1 0 0 0 0 0 0 0 )	%  MSC=2 changed  MH1=2 cons
	 ( 1 0 0 0 0 0 0 0 )	%  MSC=2 changed  MH1=2 s
	 ( 0 0 0.9231 0.0769 0 0 0 0 )	%  MSC=2 changed  MH1=2 v
	 ( 0 0 0 0 1 0 0 0 )	%  MSC=2 changed  MH1=fl
	 ( 0 0 0 0 0 1 0 0 )	%  MSC=2 changed  MH1=st
	 ( 0 0 0 0 0 0 1 0 )	%  MSC=2 changed  MH1=3 v
	 ( 0 0 0 0 0 0 0 1 )));	%  MSC=2 changed  MH1=stfl
}

potential (OH2 | OSC OH1)
{
    data
     = ((( 1 0 0 0 0 0 0 0 )	%  OSC=0 Changed  OH1=no
	 ( 0 1 0 0 0 0 0 0 )	%  OSC=0 Changed  OH1=1 a
	 ( 1 0 0 0 0 0 0 0 )	%  OSC=0 Changed  OH1=2 cons
	 ( 1 0 0 0 0 0 0 0 )	%  OSC=0 Changed  OH1=2 s
	 ( 0 0 0.9231 0.0769 0 0 0 0 )	%  OSC=0 Changed  OH1=2 v
	 ( 0 0 0 0 1 0 0 0 )	%  OSC=0 Changed  OH1=fl
	 ( 0 0 0 0 0 1 0 0 )	%  OSC=0 Changed  OH1=st
	 ( 0 0 0 0 0 0 1 0 )	%  OSC=0 Changed  OH1=3 v
	 ( 0 0 0 0 0 0 0 1 ))	%  OSC=0 Changed  OH1=stfl
	(( 1 0 0 0 0 0 0 0 )	%  OSC=1 Changed  OH1=no
	 ( 0 1 0 0 0 0 0 0 )	%  OSC=1 Changed  OH1=1 a
	 ( 0.5903 0.1181 0.1154 0.0096 0 0.1666 0 0 )	%  OSC=1 Changed  OH1=2 cons
	 ( 0.5121 0.1024 0.1154 0.0096 0.2188 0.0313 0 0.0104 )	%  OSC=1 Changed  OH1=2 s
	 ( 0 0 0.8838 0.0736 0 0 0.0426 0 )	%  OSC=1 Changed  OH1=2 v
	 ( 0 0 0 0 1 0 0 0 )	%  OSC=1 Changed  OH1=fl
	 ( 0 0 0 0 0 1 0 0 )	%  OSC=1 Changed  OH1=st
	 ( 0 0 0 0 0 0 1 0 )	%  OSC=1 Changed  OH1=3 v
	 ( 0 0 0 0 0 0 0 1 ))	%  OSC=1 Changed  OH1=stfl
	(( 0.5613 0.157 0.1757 0.0055 0.0559 0.0392 0.0027 0.0027 )	%  OSC=2 Changed  OH1=no
	 ( 0 0.7183 0.0667 0.1145 0.0559 0.0392 0.0027 0.0027 )	%  OSC=2 Changed  OH1=1 a
	 ( 1 0 0 0 0 0 0 0 )	%  OSC=2 Changed  OH1=2 cons
	 ( 1 0 0 0 0 0 0 0 )	%  OSC=2 Changed  OH1=2 s
	 ( 1 0 0 0 0 0 0 0 )	%  OSC=2 Changed  OH1=2 v
	 ( 1 0 0 0 0 0 0 0 )	%  OSC=2 Changed  OH1=fl
	 ( 1 0 0 0 0 0 0 0 )	%  OSC=2 Changed  OH1=st
	 ( 1 0 0 0 0 0 0 0 )	%  OSC=2 Changed  OH1=3 v
	 ( 1 0 0 0 0 0 0 0 )));	%  OSC=2 Changed  OH1=stfl
}

potential (Besthand | MH2 OH2)
{
    data
     = ((( 0 0 1 )	%  MH2=no  OH2=no
	 ( 0 1 0 )	%  MH2=no  OH2=1 a
	 ( 0 1 0 )	%  MH2=no  OH2=2 v
	 ( 0 1 0 )	%  MH2=no  OH2=2 a
	 ( 0 1 0 )	%  MH2=no  OH2=fl
	 ( 0 1 0 )	%  MH2=no  OH2=st
	 ( 0 1 0 )	%  MH2=no  OH2=3 v
	 ( 0 1 0 ))	%  MH2=no  OH2=stfl
	(( 1 0 0 )	%  MH2=1 a  OH2=no
	 ( 0 0 1 )	%  MH2=1 a  OH2=1 a
	 ( 0 1 0 )	%  MH2=1 a  OH2=2 v
	 ( 0 1 0 )	%  MH2=1 a  OH2=2 a
	 ( 0 1 0 )	%  MH2=1 a  OH2=fl
	 ( 0 1 0 )	%  MH2=1 a  OH2=st
	 ( 0 1 0 )	%  MH2=1 a  OH2=3 v
	 ( 0 1 0 ))	%  MH2=1 a  OH2=stfl
	(( 0 0 1 )	%  MH2=2 v  OH2=no
	 ( 0 0 1 )	%  MH2=2 v  OH2=1 a
	 ( 0 0 1 )	%  MH2=2 v  OH2=2 v
	 ( 0 1 0 )	%  MH2=2 v  OH2=2 a
	 ( 0 1 0 )	%  MH2=2 v  OH2=fl
	 ( 0 1 0 )	%  MH2=2 v  OH2=st
	 ( 0 1 0 )	%  MH2=2 v  OH2=3 v
	 ( 0 1 0 ))	%  MH2=2 v  OH2=stfl
	(( 0.5 0 0.5 )	%  MH2=2 a  OH2=no
	 ( 1 0 0 )	%  MH2=2 a  OH2=1 a
	 ( 1 0 0 )	%  MH2=2 a  OH2=2 v
	 ( 0 0 1 )	%  MH2=2 a  OH2=2 a
	 ( 0 1 0 )	%  MH2=2 a  OH2=fl
	 ( 0 1 0 )	%  MH2=2 a  OH2=st
	 ( 0 1 0 )	%  MH2=2 a  OH2=3 v
	 ( 0 1 0 ))	%  MH2=2 a  OH2=stfl
	(( 1 0 0 )	%  MH2=fl  OH2=no
	 ( 1 0 0 )	%  MH2=fl  OH2=1 a
	 ( 1 0 0 )	%  MH2=fl  OH2=2 v
	 ( 1 0 0 )	%  MH2=fl  OH2=2 a
	 ( 0 0 1 )	%  MH2=fl  OH2=fl
	 ( 0 1 0 )	%  MH2=fl  OH2=st
	 ( 0 1 0 )	%  MH2=fl  OH2=3 v
	 ( 0 1 0 ))	%  MH2=fl  OH2=stfl
	(( 1 0 0 )	%  MH2=st  OH2=no
	 ( 1 0 0 )	%  MH2=st  OH2=1 a
	 ( 1 0 0 )	%  MH2=st  OH2=2 v
	 ( 1 0 0 )	%  MH2=st  OH2=2 a
	 ( 1 0 0 )	%  MH2=st  OH2=fl
	 ( 0 0 1 )	%  MH2=st  OH2=st
	 ( 0 1 0 )	%  MH2=st  OH2=3 v
	 ( 0 1 0 ))	%  MH2=st  OH2=stfl
	(( 1 0 0 )	%  MH2=3 v  OH2=no
	 ( 1 0 0 )	%  MH2=3 v  OH2=1 a
	 ( 1 0 0 )	%  MH2=3 v  OH2=2 v
	 ( 1 0 0 )	%  MH2=3 v  OH2=2 a
	 ( 1 0 0 )	%  MH2=3 v  OH2=fl
	 ( 1 0 0 )	%  MH2=3 v  OH2=st
	 ( 0 0 1 )	%  MH2=3 v  OH2=3 v
	 ( 0 1 0 ))	%  MH2=3 v  OH2=stfl
	(( 1 0 0 )	%  MH2=stfl  OH2=no
	 ( 1 0 0 )	%  MH2=stfl  OH2=1 a
	 ( 1 0 0 )	%  MH2=stfl  OH2=2 v
	 ( 1 0 0 )	%  MH2=stfl  OH2=2 a
	 ( 1 0 0 )	%  MH2=stfl  OH2=fl
	 ( 1 0 0 )	%  MH2=stfl  OH2=st
	 ( 1 0 0 )	%  MH2=stfl  OH2=3 v
	 ( 0 0 1 )));	%  MH2=stfl  OH2=stfl
}
