net
{
    node_size = (100 40);
    HR_Compile_SaveToMemory = "0";
    HR_Desc = "";
    HR_OOBN_CheckConsistency = "1";
    HR_OOBN_FitExpand = "1";
    HR_Zoom_ZoomFactor = "100";
    HR_Groups_GroupColors = "";
    HR_Groups_GroupNames = "";
    HR_Groups_UserGroupsNo = "0";
    HR_Color_Interface = "-1";
    HR_Color_Instance = "-1";
    HR_Color_Utility = "-1";
    HR_Color_Decision = "-1";
    HR_Color_ContinuousChance = "-1";
    HR_Color_DiscreteChance = "-1";
    HR_Monitor_InitSD = "2";
    HR_Monitor_InitStates = "5";
    HR_Monitor_OpenGraph = "0";
    HR_Monitor_GraphPrecision = "100";
    HR_Monitor_AutoUpdGraph = "0";
    HR_Compile_MaxMinimalSeparators = "100000";
    HR_Compile_ApproxEpsilon = "1.0E-5";
    HR_Compile_Approximate = "0";
    HR_Compile_Compress = "0";
    HR_Compile_TriangMethod = "0";
    HR_Propagate_AutoNormal = "1";
    HR_Propagate_AutoSum = "1";
    HR_Propagate_Auto = "1";
    HR_Font_Italic = "0";
    HR_Font_Weight = "400";
    HR_Font_Size = "-12";
    HR_Font_Name = "Arial";
    HR_Grid_GridShow = "0";
    HR_Grid_GridSnap = "0";
    HR_Grid_Y = "40";
    HR_Grid_X = "40";
    HRUNTIME_Monitor_InitStates = "5";
    HRUNTIME_Monitor_OpenGraph = "0";
    HRUNTIME_Monitor_GraphPrecision = "100";
    HRUNTIME_Monitor_AutoUpdGraph = "0";
    HRUNTIME_Compile_ApproxEpsilon = "0.00001";
    HRUNTIME_Compile_Approximate = "0";
    HRUNTIME_Compile_Compress = "0";
    HRUNTIME_Compile_TriangMethod = "0";
    HRUNTIME_Propagate_AutoNormal = "1";
    HRUNTIME_Propagate_AutoSum = "1";
    HRUNTIME_Propagate_Auto = "0";
    HRUNTIME_Font_Italic = "0";
    HRUNTIME_Font_Weight = "400";
    HRUNTIME_Font_Size = "-12";
    HRUNTIME_Font_Name = "Arial";
    HRUNTIME_Grid_GridShow = "0";
    HRUNTIME_Grid_GridSnap = "1";
    HRUNTIME_Grid_Y = "10";
    HRUNTIME_Grid_X = "10";
}

node MH1
{
    label = "";
    position = (413 406);
    states = ("no" "1a" "2 cons" "2 s" "2 v" "fl" "st" "3 v" "stfl");
    HR_LinkMode_MH2 = "0";
    HR_Desc = "";
    HR_State_8 = "";
    HR_State_7 = "";
    HR_State_6 = "";
    HR_State_5 = "";
    HR_State_4 = "";
    HR_State_3 = "";
    HR_State_2 = "";
    HR_State_1 = "";
    HR_State_0 = "";
    HR_LinkMode_MH = "0";
    HR_LinkMode_MSC = "0";
    HR_LinkMode_FC = "0";
    HR_LinkMode_OH1 = "0";
    HR_Group = "0";
}

node MH0
{
    label = "";
    position = (410 532);
    states = ("no" "1a" "2 cons" "2 s" "2 v" "fl" "st" "3 v" "stfl");
    HR_LinkMode_MH1 = "0";
    HR_Desc = "";
    HR_State_8 = "";
    HR_State_7 = "";
    HR_State_6 = "";
    HR_State_5 = "";
    HR_State_4 = "";
    HR_State_3 = "";
    HR_State_2 = "";
    HR_State_1 = "";
    HR_State_0 = "";
    HR_LinkMode_OH0_1_1 = "0";
    HR_LinkMode_MFC = "0";
    HR_LinkMode_OH1 = "0";
    HR_LinkMode_FC = "0";
    HR_Group = "0";
}

decision MSC
{
    label = "";
    position = (250 334);
    states = ("change 0" "change 1" "change 2");
    HR_HTML_Desc = "<html>\r\n  <head>\r\n\r\n  </head>\r\n  <body>\r\n    <p style=\"margin-top: 0\">\r\n      \r\n    </p>\r\n  </body>\r\n</html>\r\n";
    HR_State_2 = "";
    HR_LinkMode_MH2 = "0";
    HR_Group = "0";
    HR_Desc = "";
    HR_State_1 = "";
    HR_State_0 = "";
    HR_LinkMode_MH = "0";
}

decision MFC
{
    label = "";
    position = (250 465);
    states = ("change 0" "change 1" "change 2" "change 3");
    HR_LinkMode_MH1 = "0";
    HR_LinkMode_OH0_1_1 = "0";
    HR_State_3 = "";
    HR_State_2 = "";
    HR_Group = "0";
    HR_Desc = "";
    HR_State_1 = "";
    HR_State_0 = "";
    HR_LinkMode_C2 = "0";
}

utility U
{
    position = (263 62);
}

decision D
{
    label = "";
    position = (263 181);
    states = ("call" "give up");
    HR_Group = "0";
    HR_Desc = "";
    HR_State_1 = "";
    HR_State_0 = "";
    HR_LinkMode_U = "0";
}

node FC
{
    label = "";
    position = (665 349);
    states = ("o changed" "1 changed" "2 changed" "3 changed");
    HR_LinkMode_MSC = "0";
    HR_Group = "0";
    HR_Desc = "";
    HR_State_3 = "";
    HR_State_2 = "";
    HR_State_1 = "";
    HR_State_0 = "";
    HR_LinkMode_D2 = "0";
    HR_LinkMode_OH1 = "0";
}

node OH0
{
    label = "";
    position = (561 400);
    states = ("no" "1a" "2 cons" "2 s" "2 v" "fl" "st" "3 v" "stfl");
    HR_LinkMode_OFC = "0";
    HR_LinkMode_FC = "0";
    HR_LinkMode_OH1 = "0";
}

node SC
{
    label = "";
    position = (670 185);
    states = ("0 Changed" "1 Changed" "2 Changed");
    HR_LinkMode_D = "0";
    HR_Group = "0";
    HR_Desc = "";
    HR_State_2 = "";
    HR_State_1 = "";
    HR_State_0 = "";
    HR_LinkMode_Action = "0";
    HR_LinkMode_OH2 = "0";
}

node OH1
{
    label = "";
    position = (562 257);
    states = ("no" "1 a" "2 cons" "2 s" "2 v" "fl" "st" "3 v" "stfl");
    HR_LinkMode_OSC = "0";
    HR_LinkMode_SC = "0";
    HR_LinkMode_OH2 = "0";
}

node MH
{
    label = "";
    position = (414 256);
    states = ("no" "1 a" "2 v" "2 a" "fl" "st" "3 v" "stfl");
    HR_LinkMode_D = "0";
    HR_Group = "0";
    HR_Desc = "";
    HR_State_7 = "";
    HR_State_6 = "";
    HR_State_5 = "";
    HR_State_4 = "";
    HR_State_3 = "";
    HR_State_2 = "";
    HR_State_1 = "";
    HR_State_0 = "";
    HR_LinkMode_Action = "0";
    HR_LinkMode_Besthand = "0";
}

node OH2
{
    label = "";
    position = (561 115);
    states = ("no" "1 a" "2 v" "2 a" "fl" "st" "3 v" "stfl");
    HR_LinkMode_Besthand = "0";
}

node Besthand
{
    label = "";
    position = (416 109);
    states = ("myhand" "opponent" "draw");
    HR_Group = "0";
    HR_Desc = "";
    HR_State_2 = "";
    HR_State_1 = "";
    HR_State_0 = "";
    HR_LinkMode_U = "0";
}

potential (MH1 | MH0 MFC)
{
    data
     = ((( 1 0 0 0 0 0 0 0 0 )	%  MH0=no  MFC=change 0
	 ( 0.178447 0.0338181 0.0715816 0.525194 0.190959 0 0 0 0 )	%  MH0=no  MFC=change 1
	 ( 0.1583 0.0534 0.0635 0.4659 0.1694 0.0494 0.0353 0.0024 0.0024 )	%  MH0=no  MFC=change 2
	 ( 0.1583 0.0534 0.0635 0.4659 0.1694 0.0494 0.0353 0.0024 0.0024 ))	%  MH0=no  MFC=change 3
	(( 0 1 0 0 0 0 0 0 0 )	%  MH0=1a  MFC=change 0
	 ( 0 0.2141 0.0635 0.4659 0.1694 0.0494 0.0353 0 0.0024 )	%  MH0=1a  MFC=change 1
	 ( 0 0.2117 0.0635 0.4659 0.1694 0.0494 0.0353 0.0024 0.0024 )	%  MH0=1a  MFC=change 2
	 ( 0.1583 0.0534 0.0635 0.4659 0.1694 0.0494 0.0353 0.0024 0.0024 ))	%  MH0=1a  MFC=change 3
	(( 0 0 1 0 0 0 0 0 0 )	%  MH0=2 cons  MFC=change 0
	 ( 0 0 0.5124 0.15372 0.173601 0.0040992 0.15372 0 0.00245952 )	%  MH0=2 cons  MFC=change 1
	 ( 0.1583 0.0534 0.0635 0.4659 0.1694 0.0494 0.0353 0.0024 0.0024 )	%  MH0=2 cons  MFC=change 2
	 ( 0.1583 0.0534 0.0635 0.4659 0.1694 0.0494 0.0353 0.0024 0.0024 ))	%  MH0=2 cons  MFC=change 3
	(( 0 0 0 1 0 0 0 0 0 )	%  MH0=2 s  MFC=change 0
	 ( 0 0 0 0.592008 0.15692 0.209227 0 0.0418454 0 )	%  MH0=2 s  MFC=change 1
	 ( 0.1583 0.0534 0.0635 0.4659 0.1694 0.0494 0.0353 0.0024 0.0024 )	%  MH0=2 s  MFC=change 2
	 ( 0.1583 0.0534 0.0635 0.4659 0.1694 0.0494 0.0353 0.0024 0.0024 ))	%  MH0=2 s  MFC=change 3
	(( 0 0 0 0 1 0 0 0 0 )	%  MH0=2 v  MFC=change 0
	 ( 0 0 0 0 0.94 0 0 0.06 0 )	%  MH0=2 v  MFC=change 1
	 ( 0.1583 0.0534 0.0635 0.4659 0.1694 0.0494 0.0353 0.0024 0.0024 )	%  MH0=2 v  MFC=change 2
	 ( 0.1583 0.0534 0.0635 0.4659 0.1694 0.0494 0.0353 0.0024 0.0024 ))	%  MH0=2 v  MFC=change 3
	(( 0 0 0 0 0 1 0 0 0 )	%  MH0=fl  MFC=change 0
	 ( 0 0 0 0.630248 0.167056 0.200468 0 0 0.00222742 )	%  MH0=fl  MFC=change 1
	 ( 0.1583 0.0534 0.0635 0.4659 0.1694 0.0494 0.0353 0.0024 0.0024 )	%  MH0=fl  MFC=change 2
	 ( 0.1583 0.0534 0.0635 0.4659 0.1694 0.0494 0.0353 0.0024 0.0024 ))	%  MH0=fl  MFC=change 3
	(( 0 0 0 0 0 0 1 0 0 )	%  MH0=st  MFC=change 0
	 ( 0 0 0.313643 0.418191 0.177104 0.0516466 0.0369054 0 0.00250915 )	%  MH0=st  MFC=change 1
	 ( 0.1583 0.0534 0.0635 0.4659 0.1694 0.0494 0.0353 0.0024 0.0024 )	%  MH0=st  MFC=change 2
	 ( 0.1583 0.0534 0.0635 0.4659 0.1694 0.0494 0.0353 0.0024 0.0024 ))	%  MH0=st  MFC=change 3
	(( 0 0 0 0 0 0 0 1 0 )	%  MH0=3 v  MFC=change 0
	 ( 0 0 0 0 0.98 0 0 0.02 0 )	%  MH0=3 v  MFC=change 1
	 ( 0.1583 0.0534 0.0635 0.4659 0.1694 0.0494 0.0353 0.0024 0.0024 )	%  MH0=3 v  MFC=change 2
	 ( 0.1583 0.0534 0.0635 0.4659 0.1694 0.0494 0.0353 0.0024 0.0024 ))	%  MH0=3 v  MFC=change 3
	(( 0 0 0 0 0 0 0 0 1 )	%  MH0=stfl  MFC=change 0
	 ( 0 0 0 0.522222 0.133333 0.166667 0.155556 0 0.0222222 )	%  MH0=stfl  MFC=change 1
	 ( 0.1583 0.0534 0.0635 0.4659 0.1694 0.0494 0.0353 0.0024 0.0024 )	%  MH0=stfl  MFC=change 2
	 ( 0.1583 0.0534 0.0635 0.4659 0.1694 0.0494 0.0353 0.0024 0.0024 )));	%  MH0=stfl  MFC=change 3
}

potential (MH0)
{
    data = ( 0.1672 0.0445 0.0635 0.4659 0.1694 0.0494 0.0353 0.0024 0.0024 );
}

potential (MSC | MH1 FC) {}

potential (MFC | MH0) {}

potential (U | D Besthand)
{
    data
     = (( 2	%  D=call  Besthand=myhand
	  -1	%  D=call  Besthand=opponent
	  0 )	%  D=call  Besthand=draw
	( 0	%  D=give up  Besthand=myhand
	  0	%  D=give up  Besthand=opponent
	  0 ));	%  D=give up  Besthand=draw
}

potential (D | SC MH) {}

potential (FC | OH0)
{
    data
     = (( 0 0 0 1 )	%  OH0=no
	( 0 0 1 0 )	%  OH0=1a
	( 0 1 0 0 )	%  OH0=2 cons
	( 0 1 0 0 )	%  OH0=2 s
	( 0 1 0 0 )	%  OH0=2 v
	( 1 0 0 0 )	%  OH0=fl
	( 1 0 0 0 )	%  OH0=st
	( 1 0 0 0 )	%  OH0=3 v
	( 1 0 0 0 ));	%  OH0=stfl
}

potential (OH0)
{
    data = ( 0.1672 0.0445 0.0635 0.4659 0.1694 0.0494 0.0353 0.0024 0.0024 );
}

potential (SC | OH1)
{
    data
     = (( 0 0 1 )	%  OH1=no
	( 0 0 1 )	%  OH1=1 a
	( 0 1 0 )	%  OH1=2 cons
	( 0 1 0 )	%  OH1=2 s
	( 0 1 0 )	%  OH1=2 v
	( 1 0 0 )	%  OH1=fl
	( 1 0 0 )	%  OH1=st
	( 1 0 0 )	%  OH1=3 v
	( 1 0 0 ));	%  OH1=stfl
}

potential (OH1 | FC OH0)
{
    data
     = ((( 1 0 0 0 0 0 0 0 0 )	%  FC=o changed  OH0=no
	 ( 0 1 0 0 0 0 0 0 0 )	%  FC=o changed  OH0=1a
	 ( 0 0 1 0 0 0 0 0 0 )	%  FC=o changed  OH0=2 cons
	 ( 0 0 0 1 0 0 0 0 0 )	%  FC=o changed  OH0=2 s
	 ( 0 0 0 0 1 0 0 0 0 )	%  FC=o changed  OH0=2 v
	 ( 0 0 0 0 0 1 0 0 0 )	%  FC=o changed  OH0=fl
	 ( 0 0 0 0 0 0 1 0 0 )	%  FC=o changed  OH0=st
	 ( 0 0 0 0 0 0 0 1 0 )	%  FC=o changed  OH0=3 v
	 ( 0 0 0 0 0 0 0 0 1 ))	%  FC=o changed  OH0=stfl
	(( 1 0 0 0 0 0 0 0 0 )	%  FC=1 changed  OH0=no
	 ( 0 1 0 0 0 0 0 0 0 )	%  FC=1 changed  OH0=1a
	 ( 0 0 0.347 0.3674 0.1224 0 0.1632 0 0 )	%  FC=1 changed  OH0=2 cons
	 ( 0 0 0 0.6224 0.1224 0.2143 0.0307 0 0.0102 )	%  FC=1 changed  OH0=2 s
	 ( 0 0 0 0 0.9592 0 0 0.0408 0 )	%  FC=1 changed  OH0=2 v
	 ( 0 0 1 0 0 0 0 0 0 )	%  FC=1 changed  OH0=fl
	 ( 0 0 0 1 0 0 0 0 0 )	%  FC=1 changed  OH0=st
	 ( 0 0 0 0 1 0 0 0 0 )	%  FC=1 changed  OH0=3 v
	 ( 0 0 0 0 0 0.5 0.5 0 0 ))	%  FC=1 changed  OH0=stfl
	(( 1 0 0 0 0 0 0 0 0 )	%  FC=2 changed  OH0=no
	 ( 0 0.1814 0.0681 0.4796 0.1738 0.0536 0.0383 0.0026 0.0026 )	%  FC=2 changed  OH0=1a
	 ( 1 0 0 0 0 0 0 0 0 )	%  FC=2 changed  OH0=2 cons
	 ( 1 0 0 0 0 0 0 0 0 )	%  FC=2 changed  OH0=2 s
	 ( 1 0 0 0 0 0 0 0 0 )	%  FC=2 changed  OH0=2 v
	 ( 1 0 0 0 0 0 0 0 0 )	%  FC=2 changed  OH0=fl
	 ( 1 0 0 0 0 0 0 0 0 )	%  FC=2 changed  OH0=st
	 ( 1 0 0 0 0 0 0 0 0 )	%  FC=2 changed  OH0=3 v
	 ( 1 0 0 0 0 0 0 0 0 ))	%  FC=2 changed  OH0=stfl
	(( 0.1583 0.0534 0.0635 0.4659 0.1694 0.0494 0.0353 0.0024 0.0024 )	%  FC=3 changed  OH0=no
	 ( 0 1 0 0 0 0 0 0 0 )	%  FC=3 changed  OH0=1a
	 ( 0 0 1 0 0 0 0 0 0 )	%  FC=3 changed  OH0=2 cons
	 ( 0 0 0 1 0 0 0 0 0 )	%  FC=3 changed  OH0=2 s
	 ( 0 0 0 0 1 0 0 0 0 )	%  FC=3 changed  OH0=2 v
	 ( 0 0 0 0 0 1 0 0 0 )	%  FC=3 changed  OH0=fl
	 ( 0 0 0 0 0 0 1 0 0 )	%  FC=3 changed  OH0=st
	 ( 0 0 0 0 0 0 0 1 0 )	%  FC=3 changed  OH0=3 v
	 ( 0 0 0 0 0 0 0 0 1 )));	%  FC=3 changed  OH0=stfl
}

potential (MH | MH1 MSC)
{
    data
     = ((( 1 0 0 0 0 0 0 0 )	%  MH1=no  MSC=change 0
	 ( 0.769614 0.0521739 0.165511 0.0127015 0 0 0 0 )	%  MH1=no  MSC=change 1
	 ( 0.678875 0.0527147 0.167226 0.0128332 0.048766 0.034847 0.0023692 0.0023692 ))	%  MH1=no  MSC=change 2
	(( 0 1 0 0 0 0 0 0 )	%  MH1=1a  MSC=change 0
	 ( 0 0.815 0.125 0.06 0 0 0 0 )	%  MH1=1a  MSC=change 1
	 ( 0 0.758653 0.11854 0.0379327 0.0468468 0.0334756 0.00227596 0.00227596 ))	%  MH1=1a  MSC=change 2
	(( 1 0 0 0 0 0 0 0 )	%  MH1=2 cons  MSC=change 0
	 ( 0.26824 0.128755 0.257511 0 0 0.343348 0 0.00214592 )	%  MH1=2 cons  MSC=change 1
	 ( 0.678875 0.0527147 0.167226 0.0128332 0.048766 0.034847 0.0023692 0.0023692 ))	%  MH1=2 cons  MSC=change 2
	(( 1 0 0 0 0 0 0 0 )	%  MH1=2 s  MSC=change 0
	 ( 0.578 0.08 0.12 0.001 0.22 0 0 0.001 )	%  MH1=2 s  MSC=change 1
	 ( 0.678808 0.0528082 0.16721 0.0128319 0.0487612 0.0348435 0.00236897 0.00236897 ))	%  MH1=2 s  MSC=change 2
	(( 0 0 0.9 0.1 0 0 0 0 )	%  MH1=2 v  MSC=change 0
	 ( 0 0 0.89 0.07 0 0 0.04 0 )	%  MH1=2 v  MSC=change 1
	 ( 0.678808 0.0528082 0.16721 0.0128319 0.0487612 0.0348435 0.00236897 0.00236897 ))	%  MH1=2 v  MSC=change 2
	(( 0 0 0 0 1 0 0 0 )	%  MH1=fl  MSC=change 0
	 ( 0.525839 0.0543971 0.108794 0.00271985 0.181324 0.0906618 0 0.0362647 )	%  MH1=fl  MSC=change 1
	 ( 0.678808 0.0528082 0.16721 0.0128319 0.0487612 0.0348435 0.00236897 0.00236897 ))	%  MH1=fl  MSC=change 2
	(( 0 0 0 0 0 1 0 0 )	%  MH1=st  MSC=change 0
	 ( 0.618762 0.0798403 0.11976 0.000998004 0.000998004 0.139721 0 0.0399202 )	%  MH1=st  MSC=change 1
	 ( 0.678808 0.0528082 0.16721 0.0128319 0.0487612 0.0348435 0.00236897 0.00236897 ))	%  MH1=st  MSC=change 2
	(( 0 0 0 0 0 0 1 0 )	%  MH1=3 v  MSC=change 0
	 ( 0 0 0.99 0.008 0 0 0.002 0 )	%  MH1=3 v  MSC=change 1
	 ( 0.678808 0.0528082 0.16721 0.0128319 0.0487612 0.0348435 0.00236897 0.00236897 ))	%  MH1=3 v  MSC=change 2
	(( 0 0 0 0 0 0 0 1 )	%  MH1=stfl  MSC=change 0
	 ( 0.449102 0.0798403 0.11976 0.00998004 0.199601 0.139721 0 0.00199601 )	%  MH1=stfl  MSC=change 1
	 ( 0.678808 0.0528082 0.16721 0.0128319 0.0487612 0.0348435 0.00236897 0.00236897 )));	%  MH1=stfl  MSC=change 2
}

potential (OH2 | SC OH1)
{
    data
     = ((( 1 0 0 0 0 0 0 0 )	%  SC=0 Changed  OH1=no
	 ( 0 1 0 0 0 0 0 0 )	%  SC=0 Changed  OH1=1 a
	 ( 1 0 0 0 0 0 0 0 )	%  SC=0 Changed  OH1=2 cons
	 ( 1 0 0 0 0 0 0 0 )	%  SC=0 Changed  OH1=2 s
	 ( 0 0 0.9231 0.0769 0 0 0 0 )	%  SC=0 Changed  OH1=2 v
	 ( 0 0 0 0 1 0 0 0 )	%  SC=0 Changed  OH1=fl
	 ( 0 0 0 0 0 1 0 0 )	%  SC=0 Changed  OH1=st
	 ( 0 0 0 0 0 0 1 0 )	%  SC=0 Changed  OH1=3 v
	 ( 0 0 0 0 0 0 0 1 ))	%  SC=0 Changed  OH1=stfl
	(( 1 0 0 0 0 0 0 0 )	%  SC=1 Changed  OH1=no
	 ( 0 1 0 0 0 0 0 0 )	%  SC=1 Changed  OH1=1 a
	 ( 0.5903 0.1181 0.1154 0.0096 0 0.1666 0 0 )	%  SC=1 Changed  OH1=2 cons
	 ( 0.5121 0.1024 0.1154 0.0096 0.2188 0.0313 0 0.0104 )	%  SC=1 Changed  OH1=2 s
	 ( 0 0 0.8838 0.0736 0 0 0.0426 0 )	%  SC=1 Changed  OH1=2 v
	 ( 0 0 0 0 1 0 0 0 )	%  SC=1 Changed  OH1=fl
	 ( 0 0 0 0 0 1 0 0 )	%  SC=1 Changed  OH1=st
	 ( 0 0 0 0 0 0 1 0 )	%  SC=1 Changed  OH1=3 v
	 ( 0 0 0 0 0 0 0 1 ))	%  SC=1 Changed  OH1=stfl
	(( 0.5613 0.157 0.1757 0.0055 0.0559 0.0392 0.0027 0.0027 )	%  SC=2 Changed  OH1=no
	 ( 0 0.7183 0.0667 0.1145 0.0559 0.0392 0.0027 0.0027 )	%  SC=2 Changed  OH1=1 a
	 ( 1 0 0 0 0 0 0 0 )	%  SC=2 Changed  OH1=2 cons
	 ( 1 0 0 0 0 0 0 0 )	%  SC=2 Changed  OH1=2 s
	 ( 1 0 0 0 0 0 0 0 )	%  SC=2 Changed  OH1=2 v
	 ( 1 0 0 0 0 0 0 0 )	%  SC=2 Changed  OH1=fl
	 ( 1 0 0 0 0 0 0 0 )	%  SC=2 Changed  OH1=st
	 ( 1 0 0 0 0 0 0 0 )	%  SC=2 Changed  OH1=3 v
	 ( 1 0 0 0 0 0 0 0 )));	%  SC=2 Changed  OH1=stfl
}

potential (Besthand | MH OH2)
{
    data
     = ((( 0 0 1 )	%  MH=no  OH2=no
	 ( 0 1 0 )	%  MH=no  OH2=1 a
	 ( 0 1 0 )	%  MH=no  OH2=2 v
	 ( 0 1 0 )	%  MH=no  OH2=2 a
	 ( 0 1 0 )	%  MH=no  OH2=fl
	 ( 0 1 0 )	%  MH=no  OH2=st
	 ( 0 1 0 )	%  MH=no  OH2=3 v
	 ( 0 1 0 ))	%  MH=no  OH2=stfl
	(( 1 0 0 )	%  MH=1 a  OH2=no
	 ( 0 0 1 )	%  MH=1 a  OH2=1 a
	 ( 0 1 0 )	%  MH=1 a  OH2=2 v
	 ( 0 1 0 )	%  MH=1 a  OH2=2 a
	 ( 0 1 0 )	%  MH=1 a  OH2=fl
	 ( 0 1 0 )	%  MH=1 a  OH2=st
	 ( 0 1 0 )	%  MH=1 a  OH2=3 v
	 ( 0 1 0 ))	%  MH=1 a  OH2=stfl
	(( 1 0 0 )	%  MH=2 v  OH2=no
	 ( 1 0 0 )	%  MH=2 v  OH2=1 a
	 ( 0 0 1 )	%  MH=2 v  OH2=2 v
	 ( 0 1 0 )	%  MH=2 v  OH2=2 a
	 ( 0 1 0 )	%  MH=2 v  OH2=fl
	 ( 0 1 0 )	%  MH=2 v  OH2=st
	 ( 0 1 0 )	%  MH=2 v  OH2=3 v
	 ( 0 1 0 ))	%  MH=2 v  OH2=stfl
	(( 1 0 0 )	%  MH=2 a  OH2=no
	 ( 1 0 0 )	%  MH=2 a  OH2=1 a
	 ( 1 0 0 )	%  MH=2 a  OH2=2 v
	 ( 0 0 1 )	%  MH=2 a  OH2=2 a
	 ( 0 1 0 )	%  MH=2 a  OH2=fl
	 ( 0 1 0 )	%  MH=2 a  OH2=st
	 ( 0 1 0 )	%  MH=2 a  OH2=3 v
	 ( 0 1 0 ))	%  MH=2 a  OH2=stfl
	(( 1 0 0 )	%  MH=fl  OH2=no
	 ( 1 0 0 )	%  MH=fl  OH2=1 a
	 ( 1 0 0 )	%  MH=fl  OH2=2 v
	 ( 1 0 0 )	%  MH=fl  OH2=2 a
	 ( 0 0 1 )	%  MH=fl  OH2=fl
	 ( 0 1 0 )	%  MH=fl  OH2=st
	 ( 0 1 0 )	%  MH=fl  OH2=3 v
	 ( 0 1 0 ))	%  MH=fl  OH2=stfl
	(( 1 0 0 )	%  MH=st  OH2=no
	 ( 1 0 0 )	%  MH=st  OH2=1 a
	 ( 1 0 0 )	%  MH=st  OH2=2 v
	 ( 1 0 0 )	%  MH=st  OH2=2 a
	 ( 1 0 0 )	%  MH=st  OH2=fl
	 ( 0 0 1 )	%  MH=st  OH2=st
	 ( 0 1 0 )	%  MH=st  OH2=3 v
	 ( 0 1 0 ))	%  MH=st  OH2=stfl
	(( 1 0 0 )	%  MH=3 v  OH2=no
	 ( 1 0 0 )	%  MH=3 v  OH2=1 a
	 ( 1 0 0 )	%  MH=3 v  OH2=2 v
	 ( 1 0 0 )	%  MH=3 v  OH2=2 a
	 ( 1 0 0 )	%  MH=3 v  OH2=fl
	 ( 1 0 0 )	%  MH=3 v  OH2=st
	 ( 0 0 1 )	%  MH=3 v  OH2=3 v
	 ( 0 1 0 ))	%  MH=3 v  OH2=stfl
	(( 1 0 0 )	%  MH=stfl  OH2=no
	 ( 1 0 0 )	%  MH=stfl  OH2=1 a
	 ( 1 0 0 )	%  MH=stfl  OH2=2 v
	 ( 1 0 0 )	%  MH=stfl  OH2=2 a
	 ( 1 0 0 )	%  MH=stfl  OH2=fl
	 ( 1 0 0 )	%  MH=stfl  OH2=st
	 ( 1 0 0 )	%  MH=stfl  OH2=3 v
	 ( 0 0 1 )));	%  MH=stfl  OH2=stfl
}
