net
{
    node_size = (100 40);
    HR_ToolBar_CDVT = "0";
    HR_Groups_IDs = "";
    HR_Node_Label_Style = "0";
    HR_Desc = "";
    HR_OOBN_CheckConsistency = "1";
    HR_OOBN_FitExpand = "1";
    HR_Zoom_ZoomFactor = "100";
    HR_Groups_GroupColors = "";
    HR_Groups_GroupNames = "";
    HR_Groups_UserGroupsNo = "0";
    HR_Color_Interface = "-1";
    HR_Color_Instance = "-1";
    HR_Color_Utility = "-1";
    HR_Color_Decision = "-1";
    HR_Color_ContinuousChance = "-1";
    HR_Color_DiscreteChance = "-1";
    HR_Monitor_InitSD = "2";
    HR_Monitor_InitStates = "5";
    HR_Monitor_OpenGraph = "0";
    HR_Monitor_GraphPrecision = "100";
    HR_Monitor_AutoUpdGraph = "0";
    HR_Compile_MaxMinimalSeparators = "100000";
    HR_Compile_ApproxEpsilon = "1.0E-5";
    HR_Compile_Approximate = "0";
    HR_Compile_Compress = "0";
    HR_Compile_TriangMethod = "0";
    HR_Propagate_AutoNormal = "1";
    HR_Propagate_AutoSum = "1";
    HR_Propagate_Auto = "1";
    HR_Font_Italic = "0";
    HR_Font_Weight = "400";
    HR_Font_Size = "-12";
    HR_Font_Name = "Arial";
    HR_Grid_GridShow = "1";
    HR_Grid_GridSnap = "1";
    HR_Grid_Y = "40";
    HR_Grid_X = "40";
    HRUNTIME_Monitor_InitStates = "5";
    HRUNTIME_Monitor_OpenGraph = "0";
    HRUNTIME_Monitor_GraphPrecision = "100";
    HRUNTIME_Monitor_AutoUpdGraph = "0";
    HRUNTIME_Compile_ApproxEpsilon = "0.00001";
    HRUNTIME_Compile_Approximate = "0";
    HRUNTIME_Compile_Compress = "0";
    HRUNTIME_Compile_TriangMethod = "0";
    HRUNTIME_Propagate_AutoNormal = "1";
    HRUNTIME_Propagate_AutoSum = "1";
    HRUNTIME_Propagate_Auto = "0";
    HRUNTIME_Font_Italic = "0";
    HRUNTIME_Font_Weight = "400";
    HRUNTIME_Font_Size = "-12";
    HRUNTIME_Font_Name = "Arial";
    HRUNTIME_Grid_GridShow = "0";
    HRUNTIME_Grid_GridSnap = "1";
    HRUNTIME_Grid_Y = "10";
    HRUNTIME_Grid_X = "10";
}

decision MTC
{
    label = "";
    position = (240 320);
    states = ("Action 1" "Action 2");
    HR_Group = "0";
    HR_Desc = "";
    HR_State_1 = "";
    HR_State_0 = "";
    HR_LinkMode_MH = "0";
}

decision MSC
{
    label = "";
    position = (240 440);
    states = ("Action 1" "Action 2");
    HR_Group = "0";
    HR_Desc = "";
    HR_State_1 = "";
    HR_State_0 = "";
    HR_LinkMode_MH2 = "0";
}

decision MFC
{
    label = "";
    position = (240 560);
    states = ("Action 1" "Action 2");
    HR_Group = "0";
    HR_Desc = "";
    HR_State_1 = "";
    HR_State_0 = "";
    HR_LinkMode_MH1 = "0";
}

node MH2
{
    label = "";
    position = (400 400);
    states = ("State 1" "State 2");
    HR_LinkMode_D3 = "0";
    HR_LinkMode_MH = "0";
    HR_Group = "0";
    HR_Desc = "";
    HR_State_1 = "";
    HR_State_0 = "";
}

node MH1
{
    label = "";
    position = (400 520);
    states = ("State 1" "State 2");
    HR_LinkMode_D2 = "0";
    HR_LinkMode_MH2 = "0";
    HR_Group = "0";
    HR_Desc = "";
    HR_State_1 = "";
    HR_State_0 = "";
}

node MH0
{
    label = "";
    position = (400 640);
    states = ("State 1" "State 2");
    HR_LinkMode_D1 = "0";
    HR_LinkMode_MH1 = "0";
    HR_Group = "0";
    HR_Desc = "";
    HR_State_1 = "";
    HR_State_0 = "";
}

node OTC
{
    label = "";
    position = (720 240);
    states = ("State 1" "State 2");
    HR_LinkMode_Action = "0";
    HR_Group = "0";
    HR_Desc = "";
    HR_State_1 = "";
    HR_State_0 = "";
    HR_LinkMode_OH3 = "0";
}

node OH3
{
    label = "";
    position = (560 160);
    states = ("State 1" "State 2");
    HR_Group = "0";
    HR_Desc = "";
    HR_State_1 = "";
    HR_State_0 = "";
    HR_LinkMode_Besthand = "0";
}

utility U
{
    position = (240 40);
}

decision Action
{
    position = (242 182);
    states = ("call" "give up");
    HR_LinkMode_U = "0";
}

node OFC
{
    label = "";
    position = (720 480);
    states = ("o changed" "1 changed" "2 changed" "3 changed");
    HR_Group = "0";
    HR_Desc = "";
    HR_State_3 = "";
    HR_State_2 = "";
    HR_State_1 = "";
    HR_State_0 = "";
    HR_LinkMode_MSC = "0";
    HR_LinkMode_OH1 = "0";
}

node OH0
{
    label = "";
    position = (560 520);
    states = ("no" "1a" "2 cons" "2 s" "2 v" "fl" "st" "3 v" "stfl");
    HR_LinkMode_FC = "0";
    HR_LinkMode_OH1 = "0";
}

node OSC
{
    label = "";
    position = (720 360);
    states = ("0 Changed" "1 Changed" "2 Changed");
    HR_Group = "0";
    HR_Desc = "";
    HR_State_2 = "";
    HR_State_1 = "";
    HR_State_0 = "";
    HR_LinkMode_MTC = "0";
    HR_LinkMode_C1 = "0";
    HR_LinkMode_OH2 = "0";
}

node OH1
{
    label = "";
    position = (560 400);
    states = ("no" "1 a" "2 cons" "2 s" "2 v" "fl" "st" "3 v" "stfl");
    HR_LinkMode_SC = "0";
    HR_LinkMode_OH2 = "0";
}

node MH
{
    label = "";
    position = (400 280);
    states = ("no" "1 a" "2 v" "2 a" "fl" "st" "3 v" "stfl");
    HR_LinkMode_Action = "0";
    HR_LinkMode_Besthand = "0";
}

node OH2
{
    label = "";
    position = (560 280);
    states = ("no" "1 a" "2 v" "2 a" "fl" "st" "3 v" "stfl");
    HR_LinkMode_C1 = "0";
}

node Besthand
{
    label = "";
    position = (400 160);
    states = ("myhand" "opponent" "draw");
    HR_Group = "0";
    HR_Desc = "";
    HR_State_2 = "";
    HR_State_1 = "";
    HR_State_0 = "";
    HR_LinkMode_U = "0";
}

potential (MTC | OSC MH2) {}

potential (MSC | OFC MH1) {}

potential (MFC | MH0) {}

potential (MH2 | MSC MH1)
{
    data
     = ((( 1 1 )	%  MSC=Action 1  MH1=State 1
	 ( 1 1 ))	%  MSC=Action 1  MH1=State 2
	(( 1 1 )	%  MSC=Action 2  MH1=State 1
	 ( 1 1 )));	%  MSC=Action 2  MH1=State 2
}

potential (MH1 | MFC MH0)
{
    data
     = ((( 1 1 )	%  MFC=Action 1  MH0=State 1
	 ( 1 1 ))	%  MFC=Action 1  MH0=State 2
	(( 1 1 )	%  MFC=Action 2  MH0=State 1
	 ( 1 1 )));	%  MFC=Action 2  MH0=State 2
}

potential (MH0)
{
    data = ( 1 1 );
}

potential (OTC | OH2)
{
    data
     = (( 1 1 )	%  OH2=no
	( 1 1 )	%  OH2=1 a
	( 1 1 )	%  OH2=2 v
	( 1 1 )	%  OH2=2 a
	( 1 1 )	%  OH2=fl
	( 1 1 )	%  OH2=st
	( 1 1 )	%  OH2=3 v
	( 1 1 ));	%  OH2=stfl
}

potential (OH3 | OTC OH2)
{
    data
     = ((( 1 1 )	%  OTC=State 1  OH2=no
	 ( 1 1 )	%  OTC=State 1  OH2=1 a
	 ( 1 1 )	%  OTC=State 1  OH2=2 v
	 ( 1 1 )	%  OTC=State 1  OH2=2 a
	 ( 1 1 )	%  OTC=State 1  OH2=fl
	 ( 1 1 )	%  OTC=State 1  OH2=st
	 ( 1 1 )	%  OTC=State 1  OH2=3 v
	 ( 1 1 ))	%  OTC=State 1  OH2=stfl
	(( 1 1 )	%  OTC=State 2  OH2=no
	 ( 1 1 )	%  OTC=State 2  OH2=1 a
	 ( 1 1 )	%  OTC=State 2  OH2=2 v
	 ( 1 1 )	%  OTC=State 2  OH2=2 a
	 ( 1 1 )	%  OTC=State 2  OH2=fl
	 ( 1 1 )	%  OTC=State 2  OH2=st
	 ( 1 1 )	%  OTC=State 2  OH2=3 v
	 ( 1 1 )));	%  OTC=State 2  OH2=stfl
}

potential (U | Action Besthand)
{
    data
     = (( 2	%  Action=call  Besthand=myhand
	  -1	%  Action=call  Besthand=opponent
	  0 )	%  Action=call  Besthand=draw
	( -1	%  Action=give up  Besthand=myhand
	  -1	%  Action=give up  Besthand=opponent
	  -1 ));	%  Action=give up  Besthand=draw
}

potential (Action | OTC MH) {}

potential (OFC | OH0)
{
    data
     = (( 0 0 0 1 )	%  OH0=no
	( 0 0 1 0 )	%  OH0=1a
	( 0 1 0 0 )	%  OH0=2 cons
	( 0 1 0 0 )	%  OH0=2 s
	( 0 1 0 0 )	%  OH0=2 v
	( 1 0 0 0 )	%  OH0=fl
	( 1 0 0 0 )	%  OH0=st
	( 1 0 0 0 )	%  OH0=3 v
	( 1 0 0 0 ));	%  OH0=stfl
}

potential (OH0)
{
    data = ( 0.1672 0.0445 0.0635 0.4659 0.1694 0.0494 0.0353 0.0024 0.0024 );
}

potential (OSC | OH1)
{
    data
     = (( 0 0 1 )	%  OH1=no
	( 0 0 1 )	%  OH1=1 a
	( 0 1 0 )	%  OH1=2 cons
	( 0 1 0 )	%  OH1=2 s
	( 0 1 0 )	%  OH1=2 v
	( 1 0 0 )	%  OH1=fl
	( 1 0 0 )	%  OH1=st
	( 1 0 0 )	%  OH1=3 v
	( 1 0 0 ));	%  OH1=stfl
}

potential (OH1 | OFC OH0)
{
    data
     = ((( 1 0 0 0 0 0 0 0 0 )	%  OFC=o changed  OH0=no
	 ( 0 1 0 0 0 0 0 0 0 )	%  OFC=o changed  OH0=1a
	 ( 0 0 1 0 0 0 0 0 0 )	%  OFC=o changed  OH0=2 cons
	 ( 0 0 0 1 0 0 0 0 0 )	%  OFC=o changed  OH0=2 s
	 ( 0 0 0 0 1 0 0 0 0 )	%  OFC=o changed  OH0=2 v
	 ( 0 0 0 0 0 1 0 0 0 )	%  OFC=o changed  OH0=fl
	 ( 0 0 0 0 0 0 1 0 0 )	%  OFC=o changed  OH0=st
	 ( 0 0 0 0 0 0 0 1 0 )	%  OFC=o changed  OH0=3 v
	 ( 0 0 0 0 0 0 0 0 1 ))	%  OFC=o changed  OH0=stfl
	(( 1 0 0 0 0 0 0 0 0 )	%  OFC=1 changed  OH0=no
	 ( 0 1 0 0 0 0 0 0 0 )	%  OFC=1 changed  OH0=1a
	 ( 0 0 0.347 0.3674 0.1224 0 0.1632 0 0 )	%  OFC=1 changed  OH0=2 cons
	 ( 0 0 0 0.6224 0.1224 0.2143 0.0307 0 0.0102 )	%  OFC=1 changed  OH0=2 s
	 ( 0 0 0 0 0.9592 0 0 0.0408 0 )	%  OFC=1 changed  OH0=2 v
	 ( 0 0 1 0 0 0 0 0 0 )	%  OFC=1 changed  OH0=fl
	 ( 0 0 0 1 0 0 0 0 0 )	%  OFC=1 changed  OH0=st
	 ( 0 0 0 0 1 0 0 0 0 )	%  OFC=1 changed  OH0=3 v
	 ( 0 0 0 0 0 0.5 0.5 0 0 ))	%  OFC=1 changed  OH0=stfl
	(( 1 0 0 0 0 0 0 0 0 )	%  OFC=2 changed  OH0=no
	 ( 0 0.1814 0.0681 0.4796 0.1738 0.0536 0.0383 0.0026 0.0026 )	%  OFC=2 changed  OH0=1a
	 ( 1 0 0 0 0 0 0 0 0 )	%  OFC=2 changed  OH0=2 cons
	 ( 1 0 0 0 0 0 0 0 0 )	%  OFC=2 changed  OH0=2 s
	 ( 1 0 0 0 0 0 0 0 0 )	%  OFC=2 changed  OH0=2 v
	 ( 1 0 0 0 0 0 0 0 0 )	%  OFC=2 changed  OH0=fl
	 ( 1 0 0 0 0 0 0 0 0 )	%  OFC=2 changed  OH0=st
	 ( 1 0 0 0 0 0 0 0 0 )	%  OFC=2 changed  OH0=3 v
	 ( 1 0 0 0 0 0 0 0 0 ))	%  OFC=2 changed  OH0=stfl
	(( 0.1583 0.0534 0.0635 0.4659 0.1694 0.0494 0.0353 0.0024 0.0024 )	%  OFC=3 changed  OH0=no
	 ( 0 1 0 0 0 0 0 0 0 )	%  OFC=3 changed  OH0=1a
	 ( 0 0 1 0 0 0 0 0 0 )	%  OFC=3 changed  OH0=2 cons
	 ( 0 0 0 1 0 0 0 0 0 )	%  OFC=3 changed  OH0=2 s
	 ( 0 0 0 0 1 0 0 0 0 )	%  OFC=3 changed  OH0=2 v
	 ( 0 0 0 0 0 1 0 0 0 )	%  OFC=3 changed  OH0=fl
	 ( 0 0 0 0 0 0 1 0 0 )	%  OFC=3 changed  OH0=st
	 ( 0 0 0 0 0 0 0 1 0 )	%  OFC=3 changed  OH0=3 v
	 ( 0 0 0 0 0 0 0 0 1 )));	%  OFC=3 changed  OH0=stfl
}

potential (MH | MTC MH2)
{
    data
     = ((( 0.125 0.125 0.125 0.125 0.125 0.125 0.125 0.125 )	%  MTC=Action 1  MH2=State 1
	 ( 0.125 0.125 0.125 0.125 0.125 0.125 0.125 0.125 ))	%  MTC=Action 1  MH2=State 2
	(( 0.125 0.125 0.125 0.125 0.125 0.125 0.125 0.125 )	%  MTC=Action 2  MH2=State 1
	 ( 0.125 0.125 0.125 0.125 0.125 0.125 0.125 0.125 )));	%  MTC=Action 2  MH2=State 2
}

potential (OH2 | OSC OH1)
{
    data
     = ((( 1 0 0 0 0 0 0 0 )	%  OSC=0 Changed  OH1=no
	 ( 0 1 0 0 0 0 0 0 )	%  OSC=0 Changed  OH1=1 a
	 ( 1 0 0 0 0 0 0 0 )	%  OSC=0 Changed  OH1=2 cons
	 ( 1 0 0 0 0 0 0 0 )	%  OSC=0 Changed  OH1=2 s
	 ( 0 0 0.9231 0.0769 0 0 0 0 )	%  OSC=0 Changed  OH1=2 v
	 ( 0 0 0 0 1 0 0 0 )	%  OSC=0 Changed  OH1=fl
	 ( 0 0 0 0 0 1 0 0 )	%  OSC=0 Changed  OH1=st
	 ( 0 0 0 0 0 0 1 0 )	%  OSC=0 Changed  OH1=3 v
	 ( 0 0 0 0 0 0 0 1 ))	%  OSC=0 Changed  OH1=stfl
	(( 1 0 0 0 0 0 0 0 )	%  OSC=1 Changed  OH1=no
	 ( 0 1 0 0 0 0 0 0 )	%  OSC=1 Changed  OH1=1 a
	 ( 0.5903 0.1181 0.1154 0.0096 0 0.1666 0 0 )	%  OSC=1 Changed  OH1=2 cons
	 ( 0.5121 0.1024 0.1154 0.0096 0.2188 0.0313 0 0.0104 )	%  OSC=1 Changed  OH1=2 s
	 ( 0 0 0.8838 0.0736 0 0 0.0426 0 )	%  OSC=1 Changed  OH1=2 v
	 ( 0 0 0 0 1 0 0 0 )	%  OSC=1 Changed  OH1=fl
	 ( 0 0 0 0 0 1 0 0 )	%  OSC=1 Changed  OH1=st
	 ( 0 0 0 0 0 0 1 0 )	%  OSC=1 Changed  OH1=3 v
	 ( 0 0 0 0 0 0 0 1 ))	%  OSC=1 Changed  OH1=stfl
	(( 0.5613 0.157 0.1757 0.0055 0.0559 0.0392 0.0027 0.0027 )	%  OSC=2 Changed  OH1=no
	 ( 0 0.7183 0.0667 0.1145 0.0559 0.0392 0.0027 0.0027 )	%  OSC=2 Changed  OH1=1 a
	 ( 1 0 0 0 0 0 0 0 )	%  OSC=2 Changed  OH1=2 cons
	 ( 1 0 0 0 0 0 0 0 )	%  OSC=2 Changed  OH1=2 s
	 ( 1 0 0 0 0 0 0 0 )	%  OSC=2 Changed  OH1=2 v
	 ( 1 0 0 0 0 0 0 0 )	%  OSC=2 Changed  OH1=fl
	 ( 1 0 0 0 0 0 0 0 )	%  OSC=2 Changed  OH1=st
	 ( 1 0 0 0 0 0 0 0 )	%  OSC=2 Changed  OH1=3 v
	 ( 1 0 0 0 0 0 0 0 )));	%  OSC=2 Changed  OH1=stfl
}

potential (Besthand | OH3 MH)
{
    data
     = ((( 0 0 1 )	%  OH3=State 1  MH=no
	 ( 1 0 0 )	%  OH3=State 1  MH=1 a
	 ( 0 0 1 )	%  OH3=State 1  MH=2 v
	 ( 0.5 0 0.5 )	%  OH3=State 1  MH=2 a
	 ( 1 0 0 )	%  OH3=State 1  MH=fl
	 ( 1 0 0 )	%  OH3=State 1  MH=st
	 ( 1 0 0 )	%  OH3=State 1  MH=3 v
	 ( 1 0 0 ))	%  OH3=State 1  MH=stfl
	(( 0 0 1 )	%  OH3=State 2  MH=no
	 ( 1 0 0 )	%  OH3=State 2  MH=1 a
	 ( 0 0 1 )	%  OH3=State 2  MH=2 v
	 ( 0.5 0 0.5 )	%  OH3=State 2  MH=2 a
	 ( 1 0 0 )	%  OH3=State 2  MH=fl
	 ( 1 0 0 )	%  OH3=State 2  MH=st
	 ( 1 0 0 )	%  OH3=State 2  MH=3 v
	 ( 1 0 0 )));	%  OH3=State 2  MH=stfl
}
