net
{
    node_size = (80 40);
    HR_Groups_GroupColors = "";
    HR_Groups_GroupNames = "";
    HR_Groups_UserGroupsNo = "0";
    HR_Color_Decision = "17";
    HR_Color_Utility = "36";
    HR_Color_ContinuosChance = "48";
    HR_Color_DiscreteChance = "16";
    HR_Monitor_InitSD = "2";
    HR_Monitor_InitStates = "5";
    HR_Monitor_OpenGraph = "0";
    HR_Monitor_GraphPrecision = "100";
    HR_Monitor_AutoUpdGraph = "0";
    HR_Compile_ApproxEpsilon = "0.00001";
    HR_Compile_Approximate = "0";
    HR_Compile_Compress = "0";
    HR_Compile_TriangMethod = "0";
    HR_Propagate_AutoNormal = "1";
    HR_Propagate_AutoSum = "1";
    HR_Propagate_Auto = "0";
    HR_Font_Italic = "0";
    HR_Font_Weight = "400";
    HR_Font_Size = "-12";
    HR_Font_Name = "Arial";
    HR_Grid_GridShow = "0";
    HR_Grid_GridSnap = "1";
    HR_Grid_Y = "10";
    HR_Grid_X = "10";
}

node C22
{
    label = "OK?";
    position = (630 190);
    states = ("y" "n");
}

node C21
{
    label = "OK?";
    position = (460 190);
    states = ("y" "n");
}

node C20
{
    label = "OK?";
    position = (270 230);
    states = ("y" "n");
}

node C19
{
    label = "OK?";
    position = (60 230);
    states = ("y" "n");
}

utility U20
{
    label = "CCS";
    position = (630 0);
}

utility U19
{
    label = "U";
    position = (780 50);
}

node C18
{
    label = "Fault4";
    position = (780 210);
    states = ("sp" "is" "other" "ok");
}

decision D17
{
    label = "D4";
    position = (630 100);
    states = ("cs" "no-action");
}

utility U14
{
    label = "C3";
    position = (470 10);
}

utility U13
{
    label = "C2";
    position = (270 10);
}

utility U12
{
    label = "C1";
    position = (60 10);
}

node C11
{
    label = "Fault3";
    position = (630 280);
    states = ("sp" "is" "other" "ok");
}

node C10
{
    label = "Fault2";
    position = (450 280);
    states = ("sp" "is" "other" "ok");
}

node C9
{
    label = "Test1'";
    position = (350 180);
    states = ("ok" "not-ok" "no-t");
}

node C8
{
    label = "Test1";
    position = (220 180);
    states = ("ok" "not-ok");
}

node C7
{
    label = "Fault1";
    position = (220 280);
    states = ("sp" "is" "other" "ok");
}

node C6
{
    label = "Test'";
    position = (130 180);
    states = ("ok" "mot-ok" "no-t");
}

node C5
{
    label = "Test";
    position = (0 180);
    states = ("ok" "not-ok");
}

decision D4
{
    label = "D3";
    position = (470 100);
    states = ("sp" "is" "cs" "no-action");
}

decision D3
{
    label = "D2";
    position = (270 110);
    states = ("sp" "is" "t" "cs" "noaction");
}

decision D2
{
    label = "D1";
    position = (60 100);
    states = ("sp" "is" "t" "cs" "no-action");
}

node C1
{
    label = "Fault";
    position = (0 280);
    states = ("sp" "is" "other" "ok");
}

potential (C22 | C11)
{
 data = (( 0.5 0.5 )	%  sp
	 ( 0.5 0.5 )	%  is
	 ( 0.5 0.5 )	%  other
	 ( 0.5 0.5 ));	%  ok
}

potential (C21 | C10)
{
 data = (( 0.5 0.5 )	%  sp
	 ( 0.5 0.5 )	%  is
	 ( 0.5 0.5 )	%  other
	 ( 0.5 0.5 ));	%  ok
}

potential (C20 | C7)
{
 data = (( 0.5 0.5 )	%  sp
	 ( 0.5 0.5 )	%  is
	 ( 0.5 0.5 )	%  other
	 ( 0.5 0.5 ));	%  ok
}

potential (C19 | C1)
{
 data = (( 0 1 )	%  sp
	 ( 0 1 )	%  is
	 ( 0 1 )	%  other
	 ( 1 0 ));	%  ok
}

potential (U20 | D17)
{
 data = ( -15	%  cs
	  -15 );	%  no-action
}

potential (U19 | C18)
{
 data = ( 0	%  sp
	  0	%  is
	  0	%  other
	  30 );	%  ok
}

potential (C18 | D17 C11)
{
 data = ((( 0 0 0 1 )	%  cs  sp
	  ( 0 0 0 1 )	%  cs  is
	  ( 0 0 0 1 )	%  cs  other
	  ( 0 0 0 1 ))	%  cs  ok
	 (( 1 0 0 0 )	%  no-action  sp
	  ( 0 1 0 0 )	%  no-action  is
	  ( 0 0 1 0 )	%  no-action  other
	  ( 0 0 0 1 )));	%  no-action  ok
}

potential (D17 | C22) {}

potential (U14 | D4)
{
 data = ( 0	%  sp
	  0	%  is
	  0	%  cs
	  0 );	%  no-action
}

potential (U13 | D3)
{
 data = ( 0	%  sp
	  0	%  is
	  0	%  t
	  0	%  cs
	  0 );	%  noaction
}

potential (U12 | D2)
{
 data = ( -4	%  sp
	  -2	%  is
	  -0.5	%  t
	  -15	%  cs
	  0 );	%  no-action
}

potential (C11 | D4 C10)
{
 data = ((( 0.25 0.25 0.25 0.25 )	%  sp  sp
	  ( 0.25 0.25 0.25 0.25 )	%  sp  is
	  ( 0.25 0.25 0.25 0.25 )	%  sp  other
	  ( 0.25 0.25 0.25 0.25 ))	%  sp  ok
	 (( 0.25 0.25 0.25 0.25 )	%  is  sp
	  ( 0.25 0.25 0.25 0.25 )	%  is  is
	  ( 0.25 0.25 0.25 0.25 )	%  is  other
	  ( 0.25 0.25 0.25 0.25 ))	%  is  ok
	 (( 0.25 0.25 0.25 0.25 )	%  cs  sp
	  ( 0.25 0.25 0.25 0.25 )	%  cs  is
	  ( 0.25 0.25 0.25 0.25 )	%  cs  other
	  ( 0.25 0.25 0.25 0.25 ))	%  cs  ok
	 (( 0.25 0.25 0.25 0.25 )	%  no-action  sp
	  ( 0.25 0.25 0.25 0.25 )	%  no-action  is
	  ( 0.25 0.25 0.25 0.25 )	%  no-action  other
	  ( 0.25 0.25 0.25 0.25 )));	%  no-action  ok
}

potential (C10 | C7 D3)
{
 data = ((( 0.25 0.25 0.25 0.25 )	%  sp  sp
	  ( 0.25 0.25 0.25 0.25 )	%  sp  is
	  ( 0.25 0.25 0.25 0.25 )	%  sp  t
	  ( 0.25 0.25 0.25 0.25 )	%  sp  cs
	  ( 0.25 0.25 0.25 0.25 ))	%  sp  noaction
	 (( 0.25 0.25 0.25 0.25 )	%  is  sp
	  ( 0.25 0.25 0.25 0.25 )	%  is  is
	  ( 0.25 0.25 0.25 0.25 )	%  is  t
	  ( 0.25 0.25 0.25 0.25 )	%  is  cs
	  ( 0.25 0.25 0.25 0.25 ))	%  is  noaction
	 (( 0.25 0.25 0.25 0.25 )	%  other  sp
	  ( 0.25 0.25 0.25 0.25 )	%  other  is
	  ( 0.25 0.25 0.25 0.25 )	%  other  t
	  ( 0.25 0.25 0.25 0.25 )	%  other  cs
	  ( 0.25 0.25 0.25 0.25 ))	%  other  noaction
	 (( 0.25 0.25 0.25 0.25 )	%  ok  sp
	  ( 0.25 0.25 0.25 0.25 )	%  ok  is
	  ( 0.25 0.25 0.25 0.25 )	%  ok  t
	  ( 0.25 0.25 0.25 0.25 )	%  ok  cs
	  ( 0.25 0.25 0.25 0.25 )));	%  ok  noaction
}

potential (C9 | D3 C8)
{
 data = ((( 0.333333 0.333333 0.333333 )	%  sp  ok
	  ( 0.333333 0.333333 0.333333 ))	%  sp  not-ok
	 (( 0.333333 0.333333 0.333333 )	%  is  ok
	  ( 0.333333 0.333333 0.333333 ))	%  is  not-ok
	 (( 0.333333 0.333333 0.333333 )	%  t  ok
	  ( 0.333333 0.333333 0.333333 ))	%  t  not-ok
	 (( 0.333333 0.333333 0.333333 )	%  cs  ok
	  ( 0.333333 0.333333 0.333333 ))	%  cs  not-ok
	 (( 0.333333 0.333333 0.333333 )	%  noaction  ok
	  ( 0.333333 0.333333 0.333333 )));	%  noaction  not-ok
}

potential (C8 | C7)
{
 data = (( 0.5 0.5 )	%  sp
	 ( 0.5 0.5 )	%  is
	 ( 0.5 0.5 )	%  other
	 ( 0.5 0.5 ));	%  ok
}

potential (C7 | D2 C1)
{
 data = ((( 0 0 0 1 )	%  sp  sp
	  ( 0 1 0 0 )	%  sp  is
	  ( 0 0 1 0 )	%  sp  other
	  ( 0 0 0 1 ))	%  sp  ok
	 (( 1 0 0 0 )	%  is  sp
	  ( 0 0.5 0 0.5 )	%  is  is
	  ( 0 0 1 0 )	%  is  other
	  ( 0 0 0 1 ))	%  is  ok
	 (( 1 0 0 0 )	%  t  sp
	  ( 0 1 0 0 )	%  t  is
	  ( 0 0 1 0 )	%  t  other
	  ( 0 0 0 1 ))	%  t  ok
	 (( 0 0 0 1 )	%  cs  sp
	  ( 0 0 0 1 )	%  cs  is
	  ( 0 0 0 1 )	%  cs  other
	  ( 0 0 0 1 ))	%  cs  ok
	 (( 0 0 0 1 )	%  no-action  sp
	  ( 0 1 0 0 )	%  no-action  is
	  ( 0 0 1 0 )	%  no-action  other
	  ( 0 0 0 1 )));	%  no-action  ok
}

potential (C6 | D2 C5)
{
 data = ((( 0 0 1 )	%  sp  ok
	  ( 0 0 1 ))	%  sp  not-ok
	 (( 0 0 1 )	%  is  ok
	  ( 0 0 1 ))	%  is  not-ok
	 (( 1 0 0 )	%  t  ok
	  ( 0 1 0 ))	%  t  not-ok
	 (( 0 0 1 )	%  cs  ok
	  ( 0 0 1 ))	%  cs  not-ok
	 (( 0 0 1 )	%  no-action  ok
	  ( 0 0 1 )));	%  no-action  not-ok
}

potential (C5 | C1)
{
 data = (( 1 0 )	%  sp
	 ( 0 1 )	%  is
	 ( 1 0 )	%  other
	 ( 1 0 ));	%  ok
}

potential (D4 | C9 C21) {}

potential (D3 | C6 C20) {}

potential (D2 | C19) {}

potential (C1)
{
 data = ( 0.3 0.2 0.5 0 );
}
